tree
version=v3
num_class=1
num_tree_per_iteration=1
label_index=0
max_feature_idx=33
objective=regression
feature_names=Column_0 Column_1 Column_2 Column_3 Column_4 Column_5 Column_6 Column_7 Column_8 Column_9 Column_10 Column_11 Column_12 Column_13 Column_14 Column_15 Column_16 Column_17 Column_18 Column_19 Column_20 Column_21 Column_22 Column_23 Column_24 Column_25 Column_26 Column_27 Column_28 Column_29 Column_30 Column_31 Column_32 Column_33
feature_infos=[-1.5596602869525402:3.7673982984297005] [-0.56415860640036586:1.7725511738277577] [-1.7741459860153923:4.3487794977875955] [-1.5989399777791582:4.8812306200521824] [-1.3488507137799959:3.2867139638368958] [-0.81638017917644667:2.755214962444779] [-1.2063533703372116:2.2280571206011914] [-1.6742792968007398:1.0257190811630565] [-0.9091574594313262:6.4914233665667709] [-1.2900013294410448:1.2649427072704562] [-0.73747965574727026:4.7532804048573745] [-1.2923000072490249:3.3811597097242845] [-1.485027251113491:3.0458188335231084] [-1.6344994370194676:87.739858312830307] [-0.36139465482861433:33.695098060839854] [-4.7099876827810716:6.5042934177912857] [-3.3489674438793187:11.627188299562198] [-0.35511712388738387:31.43199254329032] [-0.72004773851625203:74.493526164580985] [-2.111428073372533:34.251402667277951] [-0.84597425611622523:1.1820690674334355] [-0.22088058208463451:7.5467437608717658] none [-1.7382614265423313:11.935280982837558] [-0.026988042223647112:66.364648552999526] [-1.1584781989144177:16.537519596496253] [-1.6763240766999679:11.365499078538642] [-1.6892409272128099:12.05792894470512] [-0.25647596242927595:5.9466923935826879] [-0.20649452850418462:28.794115872705724] [-0.21842974707356053:24.883101936115313] [-4.8614427542502856:1.8472574544690328] [-1.5966553447651983:1.5914521702514559] [-4.9008515961936752:2.1539778770459765]
tree_sizes=3008 3114 3123 3131 3126 3124 3116 3141 3134 3135 3149 3123 3158 3131 3152 3122 3134 3127 3129 3150 3152 3165 3140 3147 3147 3156 3144 3135 3144 3142 3132 3130 3163 3141 3165 3142 3130 3149 3144 3135 3130 3154 3138 3146 3113 3162 3126 3169 3157 3104 3144 3153 3148 3103 3132 3131 3132 3118 3131 3164 3152 3124 3150 3172 3106 3104 3159 3116 3149 3124 3130 3090 3145 3123 3133 3074 3135 3146 3121 3093 3105 3124 3143 3109 3150 3092 3089 3097 2961 3077 3061 2904 3106 3087 2993 3117 3091 2919 3006 3107 2954 2934 2990 2887 2842 3065 2957 3049 2915 2894 2866 2902 2880 3126 3117 2958 3034 2926 2893 2925 2904 3146 3034 2981 2890 2963 3001 2934 3050 2867 2904 2982 2882 2866 2998 2997 2854 2999 2992 2972 2915 2968 2933 2928 2899 2893 3067 2948 3054 2889 2992 2867 3128 2895 2902 2862 2965 3015 2900 3058 2931 2918 3058 2944 2917 2958 3089 2866 2956 2998 2890 3001 2859 3048 2917 2875 2988 2848 3035 3067 2900 2839 3039 3002 2920 2906 2880 2837 2961 2858 2902 2882 3013 2991 2966 2913 2989 2968 2840 2981

Tree=0
num_leaves=31
num_cat=0
split_feature=4 5 29 4 5 5 29 5 29 4 1 4 1 33 33 5 33 29 1 8 2 4 8 29 5 1 33 5 8 8
split_gain=5820.08 4790.84 2132.83 967.7 926.747 895.009 567.083 576.697 406.972 429.126 373.587 307.827 166.006 154.673 137 125.243 122.999 112.575 104.399 97.0763 93.0192 87.6925 84.6532 78.2955 83.3643 65.6319 74.2317 60.7213 52.1459 50.6809
threshold=1.0000000180025095e-35 -0.45922066501432407 -0.19807488781169538 0.58263456856037554 -0.45922066501432407 1.0000000180025095e-35 -0.19807488781169538 1.6837364199584115 -0.19807488781169538 -0.96255365731192144 1.0000000180025095e-35 0.58263456856037554 1.0000000180025095e-35 0.27483245753764446 -0.70448815262916398 1.0000000180025095e-35 0.48033755967109393 -0.19807488781169538 1.0000000180025095e-35 1.0000000180025095e-35 0.95307212502370586 -0.96255365731192144 1.0000000180025095e-35 -0.19807488781169538 1.6837364199584115 1.0000000180025095e-35 0.4295955591443163 2.398055448282657 1.0000000180025095e-35 1.0000000180025095e-35
decision_type=2 2 2 2 2 2 2 2 2 2 2 2 2 2 2 2 2 2 2 2 2 2 2 2 2 2 2 2 2 2
left_child=4 2 3 12 8 17 7 11 9 -1 13 -7 16 -5 -12 -6 -2 20 -13 -16 -3 -17 -14 24 -23 26 -11 -9 -20 -18
right_child=1 5 -4 10 15 6 -8 27 -10 25 14 18 22 -15 19 21 29 -19 28 -21 -22 23 -24 -25 -26 -27 -28 -29 -30 -31
leaf_value=0.18993626370140557 0.20858089899286875 0.18895662154879378 0.17949272688321311 0.21711058673889733 0.18281640307885133 0.20374714703875563 0.17942879648889073 0.19691860323942098 0.17945169986347009 0.1982776825913804 0.2250186651356389 0.21119327504024446 0.21642639865556637 0.22916884544766317 0.2332143223365071 0.18405039373842186 0.21213099373654856 0.17946315039476443 0.21691300212523523 0.24374822413890387 0.19611327238820164 0.1937178021983767 0.22797433810550041 0.17941308707139092 0.18558258737277852 0.20871350700273728 0.2048352251222415 0.18769573433485856 0.22786767052982412 0.22174254834142573
leaf_weight=49893 43277 62690 12923 24215 98602 39625 9403 19105 13997 50850 9849 17690 15717 18972 17878 39123 9476 9301 9181 17132 25569 40351 10649 6260 18313 11148 26135 11397 8250 13029
leaf_count=49893 43277 62690 12923 24215 98602 39625 9403 19105 13997 50850 9849 17690 15717 18972 17878 39123 9476 9301 9181 17132 25569 40351 10649 6260 18313 11148 26135 11397 8250 13029
internal_value=0.199153 0.207339 0.218735 0.22155 0.189798 0.196967 0.202958 0.20506 0.195699 0.197347 0.229047 0.209789 0.214386 0.222408 0.235438 0.18537 0.211699 0.189927 0.216605 0.238369 0.19103 0.18779 0.221091 0.190044 0.191178 0.201542 0.200504 0.193473 0.222098 0.217695
internal_weight=0 405328 193117 180194 354672 212211 114651 105248 152023 138026 88046 74746 92148 43187 44859 202649 65782 97560 35121 35010 88259 104047 26366 64924 58664 88133 76985 30502 17431 22505
internal_count=760000 405328 193117 180194 354672 212211 114651 105248 152023 138026 88046 74746 92148 43187 44859 202649 65782 97560 35121 35010 88259 104047 26366 64924 58664 88133 76985 30502 17431 22505
shrinkage=1


Tree=1
num_leaves=31
num_cat=0
split_feature=4 5 29 4 5 5 29 5 29 4 1 4 33 8 33 5 29 4 2 4 8 29 5 33 1 33 4 33 5 4
split_gain=4714.27 3880.58 1727.59 814.176 750.665 724.957 459.337 467.125 329.647 347.592 291.052 260.334 175.211 126.073 107.227 101.447 91.1858 75.9535 75.3456 71.0309 70.7933 63.4193 67.5251 57.3885 53.1618 60.1277 52.8242 50.5463 49.1843 48.9935
threshold=1.0000000180025095e-35 -0.45922066501432407 -0.19807488781169538 1.3552286814965242 -0.45922066501432407 1.0000000180025095e-35 -0.19807488781169538 1.6837364199584115 -0.19807488781169538 -0.96255365731192144 1.0000000180025095e-35 1.3552286814965242 0.37885355861753867 1.0000000180025095e-35 -0.44570394994259804 1.0000000180025095e-35 -0.19807488781169538 0.58263456856037554 0.95307212502370586 -0.96255365731192144 1.0000000180025095e-35 -0.19807488781169538 1.6837364199584115 -0.75607585316472126 1.0000000180025095e-35 0.4295955591443163 0.58263456856037554 -0.49729165047815532 2.398055448282657 2.1278227944326731
decision_type=2 2 2 2 2 2 2 2 2 2 2 2 2 2 2 2 2 2 2 2 2 2 2 2 2 2 2 2 2 2
left_child=4 2 3 10 8 16 7 11 9 -1 12 17 26 -12 -5 -6 18 -7 -3 -17 -14 22 -21 -15 25 -11 -2 -13 -9 -16
right_child=1 5 -4 14 15 6 -8 28 -10 24 13 27 20 23 29 19 -18 -19 -20 21 -22 -23 -24 -25 -26 -27 -28 -29 -30 -31
leaf_value=-0.0082947310577023235 0.0080603169866537809 -0.0091764083614492373 -0.0176939140255492 0.025012701876381094 -0.014702605151054244 0.0041350638515941732 -0.017751451829329686 -0.0020106253970889202 -0.017730838760032036 -0.00078745412310785013 0.018781758556208325 0.012504728605815927 0.013713090026252052 0.017369923011715482 0.034004208104069213 -0.013592013950786431 -0.017720532637746752 0.011591261451058318 -0.002735423186107042 -0.004891346131602213 0.022366217458280664 -0.017765589171705155 -0.012213039970626435 0.031786426089714062 0.0086047881701576869 0.0051143347809345296 0.014480584539086266 0.025564859777307242 -0.010311207928615276 0.043408907463550271
leaf_weight=49893 39072 62690 12923 10748 98602 39625 9403 19105 13997 50850 26437 4199 16010 3322 18105 39123 9301 20851 25569 40351 23091 6260 18313 16358 11148 26135 19070 10071 11397 7981
leaf_count=49893 39072 62690 12923 10748 98602 39625 9403 19105 13997 50850 26437 4199 16010 3322 18105 39123 9301 20851 25569 40351 23091 6260 18313 16358 11148 26135 19070 10071 11397 7981
internal_value=0 0.00736734 0.0176243 0.0201572 -0.00841958 -0.00196674 0.00342488 0.0053168 -0.00310795 -0.00162507 0.01675 0.00957258 0.0136471 0.0232929 0.0334183 -0.0124042 -0.00830289 0.00670582 -0.00731043 -0.0102262 0.0188232 -0.0081979 -0.00717694 0.0293529 0.0021507 0.0012161 0.0101661 0.0217219 -0.00511212 0.0368816
internal_weight=0 405328 193117 180194 354672 212211 114651 105248 152023 138026 143360 74746 97243 46117 36834 202649 97560 60476 88259 104047 39101 64924 58664 19680 88133 76985 58142 14270 30502 26086
internal_count=760000 405328 193117 180194 354672 212211 114651 105248 152023 138026 143360 74746 97243 46117 36834 202649 97560 60476 88259 104047 39101 64924 58664 19680 88133 76985 58142 14270 30502 26086
shrinkage=0.1


Tree=2
num_leaves=31
num_cat=0
split_feature=4 5 29 2 5 5 29 5 29 4 33 4 1 1 33 5 29 1 1 1 33 8 8 5 29 33 8 4 13 3
split_gain=3818.56 3143.27 1399.35 675 608.039 587.215 372.063 378.371 267.014 281.549 218.261 210.87 156.523 133.133 83.3179 82.1718 73.8605 70.6362 67.747 65.7965 65.4043 65.1363 60.3319 58.9965 58.6294 57.6601 55.953 54.4574 49.7274 48.9603
threshold=1.0000000180025095e-35 -0.45922066501432407 -0.19807488781169538 0.68487960126397873 -0.45922066501432407 1.0000000180025095e-35 -0.19807488781169538 1.6837364199584115 -0.19807488781169538 -0.96255365731192144 -0.6529004520936067 1.3552286814965242 1.0000000180025095e-35 1.0000000180025095e-35 -0.49729165047815532 1.0000000180025095e-35 -0.19807488781169538 1.0000000180025095e-35 1.0000000180025095e-35 1.0000000180025095e-35 1.869822674096022 1.0000000180025095e-35 1.0000000180025095e-35 1.6837364199584115 -0.19807488781169538 0.4295955591443163 1.0000000180025095e-35 -0.96255365731192144 0.25871768876290963 -1.0063573289177732
decision_type=2 2 2 2 2 2 2 2 2 2 2 2 2 2 2 2 2 2 2 2 2 2 2 2 2 2 2 2 2 2
left_child=4 2 3 13 8 16 7 11 9 -1 19 17 29 14 -2 -6 18 25 -3 -5 22 -15 -14 24 27 -7 -16 -17 -11 -12
right_child=1 5 -4 10 15 6 -8 -9 -10 28 12 -13 20 21 26 23 -18 -19 -20 -21 -22 -23 -24 -25 -26 -27 -28 -29 -30 -31
leaf_value=-0.0074652576009948575 0.0040852537094366722 -0.0086467697855290414 -0.01592452333091186 0.0099662577049381956 -0.013232344988955608 0.00088879957295545653 -0.015976306298629003 -0.0046009059701561652 -0.015957754063118251 0.00031398210037788756 0.013339382558101749 0.019549681466299918 0.029130889760366853 0.014411379069244107 0.0083807506686881632 -0.010439876677902415 -0.015948479101358212 0.011100227660548738 -0.0028665159202699792 0.021344951060134329 -0.006300961350995388 0.024000178783681728 0.038018446061110413 -0.012683564733630782 -0.016406517691082426 0.0086141693373805953 0.014882046188185128 -0.0044022112608410897 0.0054150034342373594 0.024549275348880156
leaf_weight=49893 16366 56692 12923 9441 98602 26277 9403 30502 13997 60115 4660 14270 15449 17199 22432 23721 9301 18920 31567 11006 418 12046 15107 33180 6795 15279 32299 40351 28018 23771
leaf_count=49893 16366 56692 12923 9441 98602 26277 9403 30502 13997 60115 4660 14270 15449 17199 22432 23721 9301 18920 31567 11006 418 12046 15107 33180 6795 15279 32299 40351 28018 23771
internal_value=0 0.0066306 0.0158619 0.0181415 -0.00757762 -0.00177007 0.00308239 0.00478512 -0.00279716 -0.00146256 0.0250024 0.00861533 0.0280696 0.0126816 0.0103455 -0.0111638 -0.0074726 0.00603524 -0.00657939 0.0160911 0.0329875 0.018361 0.0335249 -0.00920354 -0.00757419 0.00372921 0.0122174 -0.0066375 0.00193563 0.0227119
internal_weight=0 405328 193117 180194 354672 212211 114651 105248 152023 138026 79852 74746 59405 100342 71097 202649 97560 60476 88259 20447 30974 29245 30556 104047 70867 41556 54731 64072 88133 28431
internal_count=760000 405328 193117 180194 354672 212211 114651 105248 152023 138026 79852 74746 59405 100342 71097 202649 97560 60476 88259 20447 30974 29245 30556 104047 70867 41556 54731 64072 88133 28431
shrinkage=0.1


Tree=3
num_leaves=31
num_cat=0
split_feature=2 5 29 5 2 5 4 29 29 5 33 5 33 33 2 33 4 2 1 5 29 33 29 1 29 1 8 8 1 8
split_gain=3101.23 2095.93 944.705 895.466 475.124 413.922 392.604 328.645 266.246 251.34 208.253 123.626 123.106 117.09 112.114 90.963 87.5866 85.5155 80.8481 76.364 75.0137 72.375 72.3269 58.8999 55.1695 50.1046 46.8591 44.8488 44.5431 44.4094
threshold=0.15625305521372795 -0.45922066501432407 -0.19807488781169538 -0.45922066501432407 -0.60103959494909709 1.0000000180025095e-35 1.3552286814965242 -0.19807488781169538 -0.19807488781169538 1.6837364199584115 -0.44570394994259804 1.0000000180025095e-35 -0.6529004520936067 -0.54972505102249214 -0.60103959494909709 1.869822674096022 1.3552286814965242 -1.1228512410601839 1.0000000180025095e-35 1.6837364199584115 -0.18544542677296152 -0.44570394994259804 -0.18712935491145935 1.0000000180025095e-35 -0.19807488781169538 1.0000000180025095e-35 1.0000000180025095e-35 1.0000000180025095e-35 1.0000000180025095e-35 1.0000000180025095e-35
decision_type=2 2 2 2 2 2 2 2 2 2 2 2 2 2 2 2 2 2 2 2 2 2 2 2 2 2 2 2 2 2
left_child=3 2 6 4 17 24 10 13 9 12 25 -5 -7 -6 -13 18 -14 -1 29 22 -19 -8 -16 27 28 -2 -20 -15 -3 -12
right_child=1 5 -4 11 7 8 21 -9 -10 -11 15 14 16 23 19 -17 -18 20 26 -21 -22 -23 -24 -25 -26 -27 -28 -29 -30 -31
leaf_value=-0.0090561486761486232 0.0059075866812467858 -0.007069779511594535 -0.014330262256132098 -0.011360546275418999 -7.3849888513713088e-05 0.0021806339042275097 0.020466447949675903 -0.014382366018893703 -0.014439396709138203 -0.0027731533209654009 0.012444348850723206 -0.0099684455471176006 0.0098093259284462754 0.0034911280867880585 -0.00071090480699447997 -0.0082239674666944231 0.02027617347648699 -0.001689275346327802 0.019628201346486161 -0.0091566834546523927 -0.014344158184888123 0.030220988211787217 -0.014402087014507004 0.013851049168092733 -0.014410330409799818 0.013957787182490475 0.028635906631676745 0.0090243940984119832 -0.0017322213911318233 0.019061172653710882
leaf_weight=37725 21181 38504 9337 124597 23580 15596 10739 8554 6823 22517 16852 64587 29623 25641 43192 1248 10950 49930 12571 21173 5169 26075 4237 14032 6737 12176 10683 34168 26324 25479
leaf_count=37725 21181 38504 9337 124597 23580 15596 10739 8554 6823 22517 16852 64587 29623 25641 43192 1248 10950 49930 12571 21173 5169 26075 4237 14032 6737 12176 10683 34168 26324 25479
internal_value=0 0.00783615 0.0164469 -0.00520737 -0.000164399 -0.000186182 0.0185444 0.00441096 0.00451007 0.00615321 0.0152994 -0.0090964 0.00973161 0.0060611 -0.00697831 0.0185204 0.0126342 -0.00538798 0.0190293 -0.00416317 -0.00287647 0.0273755 -0.00193399 0.0080202 -0.00579747 0.00884608 0.0237664 0.0066522 -0.00490242 0.016427
internal_weight=0 303415 146341 456585 198799 157074 137004 105975 85509 78686 100190 257786 56169 97421 133189 66833 40573 92824 65585 68602 55099 36814 47429 73841 71565 33357 23254 59809 64828 42331
internal_count=760000 303415 146341 456585 198799 157074 137004 105975 85509 78686 100190 257786 56169 97421 133189 66833 40573 92824 65585 68602 55099 36814 47429 73841 71565 33357 23254 59809 64828 42331
shrinkage=0.1


Tree=4
num_leaves=31
num_cat=0
split_feature=4 5 29 2 5 5 29 5 29 2 2 1 33 33 33 1 33 13 29 4 30 4 31 5 4 15 2 8 23 1
split_gain=2550.14 2059.6 921.092 464.791 398.962 384.302 246.966 249.596 178.214 184.183 155.547 123.421 102.001 81.3445 73.3057 66.0114 64.5459 62.6902 54.2916 57.6292 50.517 53.9101 48.1858 48.0948 43.6239 42.9977 42.8362 37.1141 36.2822 35.9521
threshold=1.0000000180025095e-35 -0.45922066501432407 -0.19807488781169538 0.95307212502370586 -0.45922066501432407 1.0000000180025095e-35 -0.19807488781169538 1.6837364199584115 -0.19807488781169538 -1.0188453835270919 0.7832238496168421 1.0000000180025095e-35 -0.70448815262916398 1.869822674096022 -0.18861114727359132 1.0000000180025095e-35 -0.49729165047815532 0.21227783265864197 -0.19807488781169538 -0.96255365731192144 -0.20177121806476794 1.3552286814965242 1.0000000180025095e-35 1.0000000180025095e-35 1.3552286814965242 -0.14044299360444354 0.23069273147229158 1.0000000180025095e-35 1.0000000180025095e-35 1.0000000180025095e-35
decision_type=2 2 2 2 2 2 2 2 2 2 2 2 2 2 2 2 2 2 2 2 2 2 2 2 2 2 2 2 2 2
left_child=4 2 3 11 8 20 7 10 9 -1 29 14 -5 15 -2 -14 -12 -13 19 -6 21 -3 -11 -21 -9 -19 -16 -17 -24 -7
right_child=1 5 -4 12 18 6 -8 24 -10 22 16 17 13 -15 26 27 -18 25 -20 23 -22 -23 28 -25 -26 -27 -28 -29 -30 -31
leaf_value=-0.0060377972817166579 0.004999217360913316 -0.0063793248795354267 -0.012897720680898773 0.014367271921371516 -0.010822859994559328 0.0015161461049537303 -0.012983526182969579 -0.0053921042214995392 -0.013071923007294478 -0.0014137205008848983 0.0057587632388240995 0.012495367126373683 0.020405245746199729 -0.0063164582719730444 0.0088220876121691844 0.024333872627358161 0.015761651312596502 0.02593081554657959 -0.013984899380495694 -0.0093004544117965722 -0.013082162153437119 0.00020173707554495789 0.001251178313407825 -0.0051722510091550969 0.0047203794909225615 0.015395135696723223 0.014526999133054597 0.031941323429916207 0.0065397585237081755 0.00778088372974098
leaf_weight=50516 29257 73456 12923 13617 69166 31954 9403 25374 13997 33782 9403 21812 19433 856 31400 12845 20547 7973 20436 54383 9117 14987 31834 58664 5128 7534 22660 12807 21894 12842
leaf_count=50516 29257 73456 12923 13617 69166 31954 9403 25374 13997 33782 9403 21812 19433 856 31400 12845 20547 7973 20436 54383 9117 14987 31834 58664 5128 7534 22660 12807 21894 12842
internal_value=0 0.00541858 0.012891 0.0147405 -0.00619248 -0.0013815 0.00254403 0.00393129 -0.00232017 -0.00122986 0.00704216 0.011172 0.0219686 0.0242217 0.00903126 0.0248015 0.0126212 0.0159512 -0.00909741 -0.00854926 -0.00599473 -0.00526414 0.00154557 -0.00715819 -0.00369199 0.0208121 0.0112134 0.028132 0.00340626 0.0033121
internal_weight=0 405328 193117 180194 354672 212211 114651 105248 152023 138026 74746 120636 59558 45941 83317 45085 29950 37319 202649 182213 97560 88443 87510 113047 30502 15507 54060 25652 53728 44796
internal_count=760000 405328 193117 180194 354672 212211 114651 105248 152023 138026 74746 120636 59558 45941 83317 45085 29950 37319 202649 182213 97560 88443 87510 113047 30502 15507 54060 25652 53728 44796
shrinkage=0.1


Tree=5
num_leaves=31
num_cat=0
split_feature=4 5 5 2 29 29 5 1 29 2 5 33 5 5 2 29 33 13 1 2 29 33 13 8 33 8 8 1 23 29
split_gain=2090.26 958.942 951.617 537.289 456.196 376.758 210.043 153.596 142.83 142.42 132.55 124.509 105.824 103.139 94.6872 85.688 80.9482 63.0381 62.3628 61.7749 54.3766 49.1625 46.8217 45.3957 43.5579 41.3071 40.5916 34.2423 33.0749 32.4649
threshold=0.58263456856037554 -0.45922066501432407 -0.45922066501432407 -0.60103959494909709 -0.19807488781169538 -0.19807488781169538 1.0000000180025095e-35 1.0000000180025095e-35 -0.19807488781169538 -0.60103959494909709 1.0000000180025095e-35 -0.34252854887148348 1.6837364199584115 1.6837364199584115 -0.10439065630569384 -0.18712935491145935 0.12006935593097265 0.65085388502248687 1.0000000180025095e-35 -1.2612461321324431 -0.19807488781169538 -0.18861114727359132 0.39588199354393633 1.0000000180025095e-35 1.9214103746315792 1.0000000180025095e-35 1.0000000180025095e-35 1.0000000180025095e-35 -0.33983095285575154 -0.19807488781169538
decision_type=2 2 2 2 2 2 2 2 2 2 2 2 2 2 2 2 2 2 2 2 2 2 2 2 2 2 2 2 2 2
left_child=1 3 4 19 7 11 29 16 13 -3 -11 27 15 18 28 21 -2 23 -8 -1 -21 -12 -20 -9 25 -16 -23 -5 -13 -4
right_child=2 9 6 5 -6 -7 8 17 -10 10 12 14 -14 -15 24 -17 -18 -19 22 20 -22 26 -24 -25 -26 -27 -28 -29 -30 -31
leaf_value=-0.0085468042870279794 0.0094426179965790922 -0.0092732472632370451 -0.002180799742228904 0.001104429651606578 -0.011593276522676265 -0.011639247217024935 0.0065179820290522904 0.016058117258566037 -0.011753749415060225 -0.0077243556204327855 -0.0026469011358026236 0.0026175948134115959 -0.0073344921153569971 0.00044479300327216202 0.0089316389670515885 -0.011624220728261031 0.018101414507143938 0.02783005897538331 0.010708834242024338 -0.0019015287033200886 -0.011674463717774267 -0.00045090282315804703 0.021285464632234585 0.023680573588557775 -0.015027850093757547 0.014902668864181658 0.006041297387481547 0.0074021241029322248 0.0078543316378970555 -0.011623134225822285
leaf_weight=26390 21628 126463 39312 39031 5528 12363 17690 16539 4029 90948 25568 21443 30996 13603 21309 6124 21559 13511 10448 60103 6289 18095 6983 14809 596 25391 20588 11086 27565 4013
leaf_count=26390 21628 126463 39312 39031 5528 12363 17690 16539 4029 90948 25568 21443 30996 13603 21309 6124 21559 13511 10448 60103 6289 18095 6983 14809 596 25391 20588 11086 27565 4013
internal_value=0 -0.00302414 0.00909462 0.00159166 0.0162723 0.00512436 0.00210397 0.0180219 0.00634125 -0.00666669 -0.0049527 0.00653979 -0.00246603 0.00783753 0.00864341 -0.000321756 0.0137651 0.02212 0.0107009 -0.00445408 -0.00282727 0.000755524 0.0149459 0.019659 0.0118353 0.0121781 0.0030044 0.00249749 0.00556305 -0.0030554
internal_weight=0 570348 189652 251566 93574 158784 96078 88046 52753 318782 192319 146421 101371 48724 96304 70375 43187 44859 35121 92782 66392 64251 17431 31348 47296 46700 38683 50117 49008 43325
internal_count=760000 570348 189652 251566 93574 158784 96078 88046 52753 318782 192319 146421 101371 48724 96304 70375 43187 44859 35121 92782 66392 64251 17431 31348 47296 46700 38683 50117 49008 43325
shrinkage=0.1


Tree=6
num_leaves=31
num_cat=0
split_feature=2 5 5 29 2 5 29 4 29 5 33 33 2 33 5 33 5 23 2 3 8 1 29 3 29 8 33 8 33 33
split_gain=1715.33 1026.63 552.3 471.431 302.923 215.39 208.038 193.477 138.637 124.116 102.455 88.4703 83.0565 73.0222 69.7373 67.1428 56.8433 53.9827 51.9178 51.103 49.6686 48.5258 48.1017 47.9301 46.6078 43.6409 41.267 38.9192 35.7193 34.3942
threshold=0.23069273147229158 -0.45922066501432407 -0.45922066501432407 -0.19807488781169538 -0.60103959494909709 1.0000000180025095e-35 -0.19807488781169538 1.3552286814965242 -0.19807488781169538 1.6837364199584115 -0.44570394994259804 -0.49729165047815532 -0.73597461374454975 -0.49729165047815532 1.0000000180025095e-35 1.9214103746315792 1.6837364199584115 -0.33983095285575154 -1.3310726453552648 -1.017045000748241 1.0000000180025095e-35 1.0000000180025095e-35 -0.18712935491145935 -0.69255275333017885 -0.19807488781169538 1.0000000180025095e-35 -0.70448815262916398 1.0000000180025095e-35 -0.39411624940704076 -0.60131275155804942
decision_type=2 2 2 2 2 2 2 2 2 2 2 2 2 2 2 2 2 2 2 2 2 2 2 2 2 2 2 2 2 2
left_child=2 3 4 7 18 29 11 10 9 13 -2 -6 -4 -7 -14 19 22 -13 -1 -12 -21 -15 28 -9 -20 -23 -25 -19 -16 -3
right_child=1 5 12 -5 6 8 -8 23 -10 -11 15 17 14 21 16 -17 -18 27 24 20 -22 25 -24 26 -26 -27 -28 -29 -30 -31
leaf_value=-0.0084717096615565361 0.0068909258173511061 -0.0073380425537143169 -0.008623648204685308 -0.010423720667208087 5.4451497747049473e-05 0.0024672047318140961 -0.010495487560143806 0.01036699818975261 -0.010552568016527299 -0.0014075285184141947 0.005719075216863395 0.003492196119527273 -0.0072226463209154532 0.0072275859224030618 -0.0044318577913935115 -0.013582968927459095 -0.0069451636627082137 0.0057197077833427024 -0.0019358718906760464 0.012248211130654683 0.018569267503086916 0.0097646576712802444 -0.010506648070189768 0.014649715908270239 -0.010568650066421527 0.02064603998322297 0.023486022138794041 0.011447553453079616 0.0011111116428190826 -0.002311995400991832
leaf_weight=20395 29054 19867 109102 8214 29190 16335 9677 4226 6010 19848 5780 35233 79403 18605 16626 857 27025 23121 65515 23096 26920 7807 5326 6637 6914 6982 25949 24362 38655 43269
leaf_count=20395 29054 19867 109102 8214 29190 16335 9677 4226 6010 19848 5780 35233 79403 18605 16626 857 27025 23121 65515 23096 26920 7807 5326 6637 6914 6982 25949 24362 38655 43269
internal_value=0 0.00641005 -0.00352105 0.0127684 0.000286908 0.000417913 0.00357119 0.0143233 0.00401917 0.00527786 0.0117189 0.0047876 -0.00647774 0.00794616 -0.00507609 0.0141949 -0.00313111 0.00645789 -0.00401492 0.0146216 0.0156504 0.0106262 -0.0014304 0.0203868 -0.00275995 0.0149018 0.0216863 0.00865848 -0.00055596 -0.00389354
internal_weight=0 269456 490544 130733 214407 138723 121583 122519 75587 69577 85707 111906 276137 49729 167035 56653 87632 82716 92824 55796 50016 33394 60607 36812 72429 14789 32586 47483 55281 63136
internal_count=760000 269456 490544 130733 214407 138723 121583 122519 75587 69577 85707 111906 276137 49729 167035 56653 87632 82716 92824 55796 50016 33394 60607 36812 72429 14789 32586 47483 55281 63136
shrinkage=0.1


Tree=7
num_leaves=31
num_cat=0
split_feature=4 5 29 4 5 5 29 5 13 2 2 29 1 1 0 8 33 13 5 33 8 29 5 8 30 1 15 5 1 1
split_gain=1405.35 1095.12 493.287 261.386 210.375 207.178 136.188 133.645 121.515 97.8467 93.9827 88.5167 58.6867 50.4202 44.1783 43.5856 43.0659 40.9718 39.1827 39.0739 39.0242 38.5556 37.3708 36.8452 36.195 38.611 35.2465 34.5086 33.5837 31.6242
threshold=1.0000000180025095e-35 -0.45922066501432407 -0.19807488781169538 1.3552286814965242 -0.45922066501432407 1.0000000180025095e-35 -0.19807488781169538 1.6837364199584115 0.21227783265864197 -1.1154072734343272 1.4133399824534167 -0.19807488781169538 1.0000000180025095e-35 1.0000000180025095e-35 -0.60918168311590837 1.0000000180025095e-35 -0.75607585316472126 0.54528657556820981 2.398055448282657 0.48033755967109393 1.0000000180025095e-35 -0.19807488781169538 1.0000000180025095e-35 1.0000000180025095e-35 -0.20177121806476794 1.0000000180025095e-35 -0.14044299360444354 1.6837364199584115 1.0000000180025095e-35 1.0000000180025095e-35
decision_type=2 2 2 2 2 2 2 2 2 2 2 2 2 2 2 2 2 2 2 2 2 2 2 2 2 2 2 2 2 2
left_child=4 2 3 8 9 24 7 10 14 -1 13 15 19 -7 -2 -11 -16 -5 29 -10 -15 22 -6 -18 25 -3 -14 -24 -17 -9
right_child=1 5 -4 17 21 6 -8 18 12 11 -12 -13 26 20 16 28 23 -19 -20 -21 -22 -23 27 -25 -26 -27 -28 -29 -30 -31
leaf_value=-0.00562059829795079 0.0029150580390315817 -0.0052636314668394685 -0.0094011526607576008 0.015837978674506075 -0.0077202736138329625 0.0016370008786333137 -0.009584445787305898 -0.0028660308034018961 0.0079049677406140047 -0.0013396082149997044 0.012975283733615957 -0.009410450409548533 0.020663689841874611 0.0039774940352999494 0.0025392486900218513 0.0021318946875710917 0.0064949107112431724 0.022786853235202301 -0.0072423171664190121 0.014285080763424489 0.012896224288704995 -0.010825175775609142 -0.0035476424343854223 0.012275923897640196 -0.010322441867654544 -0.00090421082490517695 0.012178712141943172 -0.0076680841020427106 0.011810037315655978 0.005625008565317619
leaf_weight=46269 25602 56818 12923 23579 88372 41607 9403 12282 27519 48073 13015 9325 10587 11648 11702 44456 22220 13255 11397 14741 8476 20436 64072 21882 9117 31625 9107 29769 3900 6823
leaf_count=46269 25602 56818 12923 23579 88372 41607 9403 12282 27519 48073 13015 9325 10587 11648 11702 44456 22220 13255 11397 14741 8476 20436 64072 21882 9117 31625 9107 29769 3900 6823
internal_value=0 0.0040225 0.00947129 0.0108248 -0.00459701 -0.000936033 0.00194624 0.0029764 0.00889422 -0.0017851 0.00525275 -0.00010701 0.0122315 0.00362458 0.00635438 0.000792663 0.00793228 0.0183386 -0.00260186 0.0101305 0.00773396 -0.00670645 -0.00624451 0.00936326 -0.00432323 -0.00370481 0.01674 -0.00485476 0.00291245 0.000166388
internal_weight=0 405328 193117 180194 354672 212211 114651 105248 143360 152023 74746 105754 61954 61731 81406 96429 55804 36834 30502 42260 20124 202649 182213 44102 97560 88443 19694 93841 48356 19105
internal_count=760000 405328 193117 180194 354672 212211 114651 105248 143360 152023 74746 105754 61954 61731 81406 96429 55804 36834 30502 42260 20124 202649 182213 44102 97560 88443 19694 93841 48356 19105
shrinkage=0.1


Tree=8
num_leaves=31
num_cat=0
split_feature=4 5 5 2 29 29 5 1 13 5 29 5 5 2 33 13 1 29 13 2 33 33 29 1 3 33 15 8 33 8
split_gain=1184.83 510.446 499.879 289.207 246.92 194.391 112.398 97.5523 83.3388 82.4552 78.8664 72.4352 64.9715 62.0951 56.8786 54.5189 49.1581 41.8026 41.6726 40.0039 39.7692 39.2813 36.1658 34.4791 31.9196 31.5512 30.4397 30.0165 27.8347 27.6056
threshold=0.58263456856037554 -0.45922066501432407 -0.45922066501432407 -0.52314004641372691 -0.19807488781169538 -0.19807488781169538 1.0000000180025095e-35 1.0000000180025095e-35 0.051934264934597955 1.0000000180025095e-35 -0.19807488781169538 1.6837364199584115 2.398055448282657 -0.38726142608823583 0.27483245753764446 0.49160828262535705 1.0000000180025095e-35 -0.18712935491145935 0.069217048809920315 -1.3310726453552648 -0.34252854887148348 0.48033755967109393 -0.19807488781169538 1.0000000180025095e-35 -0.96974392720874747 0.12006935593097265 -0.14044299360444354 1.0000000180025095e-35 1.9214103746315792 1.0000000180025095e-35
decision_type=2 2 2 2 2 2 2 2 2 2 2 2 2 2 2 2 2 2 2 2 2 2 2 2 2 2 2 2 2 2
left_child=1 3 4 19 7 8 -4 14 20 -3 12 13 15 -11 -2 24 21 25 -9 -1 -5 -10 -21 -17 -8 -15 -20 -27 -16 -26
right_child=2 9 6 5 -6 -7 10 18 16 11 -12 -13 -14 17 28 23 -18 -19 26 22 -22 -23 -24 -25 29 27 -28 -29 -30 -31
leaf_value=-0.0070453681310907214 0.0067318428573764954 -0.0066102213494698683 -0.0019936138776018657 -0.00035899486191187224 -0.0084514301527674317 -0.0084862584019893515 -0.0045279226386554178 0.013167795273257153 0.0040680005017182446 -0.0043942689051075026 -0.0085658539967742274 -0.0064919757519125562 -0.0049223711658326133 -0.0011877148414773855 0.014566163481574662 0.0072936633397824345 0.012538520890457545 -0.0084228367738198705 0.021599188310257131 -0.0013889412944451793 0.0043959102382422855 0.010063039624189744 -0.0086951224358264492 0.016760228059812601 0.0023605149479985817 9.5325441323664597e-06 0.014015412883453647 0.0069087775477531992 -0.014059254845787336 0.009005864341308692
leaf_weight=20353 24215 152837 43325 28187 5528 11798 3364 19762 33926 55181 4029 51808 4905 28592 18626 7726 14924 5054 17512 71988 46787 16124 7479 7664 11918 11918 7585 13392 346 13147
leaf_count=20353 24215 152837 43325 28187 5528 11798 3364 19762 33926 55181 4029 51808 4905 28592 18626 7726 14924 5054 17512 71988 46787 16124 7479 7664 11918 11918 7585 13392 346 13147
internal_value=0 -0.00227683 0.00684719 0.00109081 0.0120494 0.00384079 0.00178056 0.0133366 0.00487999 -0.00493439 0.00488021 -0.00339093 0.00599207 -0.00198334 0.00994411 0.00721381 0.00750134 0.000273217 0.0166026 -0.00308968 0.00260827 0.00599935 -0.00207656 0.0120079 0.00461855 0.00108858 0.0193072 0.00366005 0.0140441 0.00584611
internal_weight=0 570348 189652 251566 93574 151746 96078 88046 139948 318782 52753 165945 48724 114137 43187 43819 64974 58956 44859 99820 74974 50050 79467 15390 28429 53902 25097 25310 18972 25065
internal_count=760000 570348 189652 251566 93574 151746 96078 88046 139948 318782 52753 165945 48724 114137 43187 43819 64974 58956 44859 99820 74974 50050 79467 15390 28429 53902 25097 25310 18972 25065
shrinkage=0.1


Tree=9
num_leaves=31
num_cat=0
split_feature=2 5 29 5 33 5 2 4 29 33 29 33 4 1 13 2 29 1 5 8 8 5 5 33 3 33 30 3 8 16
split_gain=969.48 621.958 284.401 227.583 137.711 124.442 123.672 92.1789 87.0236 84.7963 74.5507 66.9817 59.9417 59.8948 46.8224 45.4918 44.4402 43.0992 42.7679 38.1266 35.5889 35.3895 36.0137 32.1375 29.4709 29.3126 27.5808 26.7695 26.3854 26.0714
threshold=0.088313745050982481 -0.45922066501432407 -0.19807488781169538 -0.45922066501432407 -0.49729165047815532 1.0000000180025095e-35 -0.73597461374454975 2.1278227944326731 -0.19807488781169538 -0.49729165047815532 -0.19807488781169538 1.869822674096022 1.3552286814965242 1.0000000180025095e-35 0.25005596438251976 -1.1228512410601839 -0.19807488781169538 1.0000000180025095e-35 2.398055448282657 1.0000000180025095e-35 1.0000000180025095e-35 1.0000000180025095e-35 2.398055448282657 -0.44570394994259804 -1.0257633877870482 1.869822674096022 -0.19273034620689558 -0.84837480237903617 1.0000000180025095e-35 0.94188242391669241
decision_type=2 2 2 2 2 2 2 2 2 2 2 2 2 2 2 2 2 2 2 2 2 2 2 2 2 2 2 2 2 2
left_child=3 2 4 6 17 23 29 11 14 -7 12 13 18 19 -8 -5 21 -2 25 -6 -15 -17 -23 -3 -21 27 -25 -11 -29 -1
right_child=1 5 -4 15 7 9 8 -9 -10 10 -12 -13 -14 20 -16 16 -18 -19 -20 24 -22 22 -24 26 -26 -27 -28 28 -30 -31
leaf_value=-0.002085265552840887 0.0027331316335948452 -0.005754694880098811 -0.0076284770339694122 -0.0076300431194147311 0.0059642359873516536 -0.0018226411184541693 0.00096629065671082121 0.022287059271940704 -0.0075955668407591079 -0.00043775073051993273 -0.0077003460962869353 -0.0099680355269870201 0.011450220965617854 0.011664487181084524 0.0054322239101993464 -0.0052958869205113925 -0.008866577166541427 0.0089168900720182406 -0.0055464521257791426 0.0049266549679280701 0.017989123015340971 -0.0017425654275161876 -0.0077923153936942839 -0.00070367339003711278 0.012934190089763833 -0.014664233105381331 -0.0090417342320180099 0.0035058491679457017 0.0094997116960987161 -0.0058437000384083341
leaf_weight=50513 25910 27667 9849 52614 20413 30402 67375 8097 9262 6615 4499 1478 13586 18835 36031 85249 19392 19949 4384 5588 16862 81506 11191 43227 25895 750 4368 14214 15196 29083
leaf_count=50513 25910 27667 9849 52614 20413 30402 67375 8097 9262 6615 4499 1478 13586 18835 36031 85249 19392 19949 4384 5588 16862 81506 11191 43227 25895 750 4368 14214 15196 29083
internal_value=0 0.00421322 0.00880801 -0.00302769 0.00993984 -4.63289e-05 -0.000441077 0.0120715 0.00169065 0.00247069 0.00467388 0.0111429 0.0056908 0.0114991 0.00252241 -0.00501732 -0.00432072 0.00542311 0.0037897 0.00933037 0.014652 -0.00382533 -0.00247293 -0.00304439 0.0115129 0.00490267 -0.00146889 0.00531004 0.00660285 -0.00345853
internal_weight=0 317784 152876 442216 143027 164908 192264 97168 112668 89646 59244 89071 54745 87593 103406 249952 197338 45859 41159 51896 35697 177946 92697 75262 31483 36775 47595 36025 29410 79596
internal_count=760000 317784 152876 442216 143027 164908 192264 97168 112668 89646 59244 89071 54745 87593 103406 249952 197338 45859 41159 51896 35697 177946 92697 75262 31483 36775 47595 36025 29410 79596
shrinkage=0.1


Tree=10
num_leaves=31
num_cat=0
split_feature=4 5 5 4 29 29 3 29 1 2 13 29 2 8 30 5 5 8 13 33 8 18 33 1 2 15 1 33 8 33
split_gain=804.476 333.735 328.381 194.293 163.889 99.1344 75.2625 73.389 75.5531 59.203 57.8836 56.2829 55.9716 51.7091 46.5291 45.9281 42.4191 41.5782 37.1248 36.9265 36.4892 36.0205 32.3925 31.1018 28.8283 28.5777 28.022 29.6751 24.4984 24.1894
threshold=0.58263456856037554 -0.45922066501432407 -0.45922066501432407 1.0000000180025095e-35 -0.19807488781169538 -0.19807488781169538 -0.86961631115121785 -0.19807488781169538 1.0000000180025095e-35 -0.60103959494909709 0.30812611773839133 -0.19807488781169538 -1.1228512410601839 1.0000000180025095e-35 -0.21215256786227607 1.0000000180025095e-35 2.398055448282657 1.0000000180025095e-35 -0.096169025098880256 -0.80597215368271924 1.0000000180025095e-35 0.4335799619351029 0.22324475700208721 1.0000000180025095e-35 1.7404551795333023 -0.22977243851052734 1.0000000180025095e-35 0.4295955591443163 1.0000000180025095e-35 0.48033755967109393
decision_type=2 2 2 2 2 2 2 2 2 2 2 2 2 2 2 2 2 2 2 2 2 2 2 2 2 2 2 2 2 2
left_child=1 3 4 11 6 17 -2 8 22 -3 21 12 -1 -10 15 -11 18 -5 -17 -15 -14 24 -4 29 -8 -12 27 -22 -20 -19
right_child=2 9 7 5 -6 -7 10 -9 13 14 25 -13 20 19 -16 16 -18 23 28 -21 26 -23 -24 -25 -26 -27 -28 -29 -30 -31
leaf_value=-0.004325887167303308 0.0031774778670873058 -0.0057055394596675271 -0.0027642623750605872 0.0029008856387286097 -0.0068434415273260539 -0.0068585631033711699 0.0090909254998877732 -0.0076087626218388138 0.0022150636176956479 -0.0041442856010820844 0.017175487192418938 -0.0074441154443716049 -0.0015106195673860352 0.00057972213479139632 -0.0077902731510779161 -0.0023628211247066523 -0.0067827408142076828 0.0040495687833430717 -0.00055934644969740969 0.011455553661131879 -0.00017952866047339828 0.001787570845769226 0.0025996175306682717 0.011943205346724431 0.01561955673976835 0.01112834594687637 0.010227779430631717 0.0051167597288144682 0.0042195401908114438 0.0093445643358305974
leaf_weight=33792 11020 126463 25975 42930 5528 7395 28522 8042 22922 82102 22391 13997 52200 3919 17800 38659 10803 25540 20771 15348 32248 5242 19872 10649 8866 12005 4042 15744 22184 13029
leaf_count=33792 11020 126463 25975 42930 5528 7395 28522 8042 22922 82102 22391 13997 52200 3919 17800 38659 10803 25540 20771 15348 32248 5242 19872 10649 8866 12005 4042 15744 22184 13029
internal_value=0 -0.00187611 0.0056421 0.000846915 0.00985853 0.00428132 0.0109072 0.00153556 0.00237089 -0.00402498 0.012013 -0.0014019 -0.000789164 0.00542477 -0.00291989 -0.00242314 -0.000894101 0.00517531 -0.00011464 0.00924336 0.000357419 0.00955066 -0.000439333 0.00715916 0.0106391 0.0150649 0.00223142 0.00155794 0.0019087 0.00583827
internal_weight=0 570348 189652 251566 93574 99543 88046 96078 88036 318782 77026 152023 138026 42189 192319 174519 92417 92148 81614 19267 104234 42630 45847 49218 37388 34396 52034 47992 42955 38569
internal_count=760000 570348 189652 251566 93574 99543 88046 96078 88036 318782 77026 152023 138026 42189 192319 174519 92417 92148 81614 19267 104234 42630 45847 49218 37388 34396 52034 47992 42955 38569
shrinkage=0.1


Tree=11
num_leaves=31
num_cat=0
split_feature=2 5 5 2 29 29 5 33 1 13 33 5 29 4 13 8 8 15 3 33 33 1 3 13 8 15 1 1 1 0
split_gain=657.288 276.121 262.415 155.946 137.113 92.6006 76.6574 66.8985 57.912 53.448 49.4336 49.3684 50.0391 46.217 45.204 37.7285 34.668 34.1591 30.6256 29.6681 28.7159 27.0206 26.9855 25.805 25.5162 24.194 23.0235 21.3118 19.5503 18.7359
threshold=0.55634010394989597 -0.45922066501432407 -0.45922066501432407 -0.38726142608823583 -0.19807488781169538 -0.19807488781169538 1.0000000180025095e-35 -0.80597215368271924 1.0000000180025095e-35 0.21227783265864197 1.9214103746315792 2.398055448282657 -0.19807488781169538 2.1278227944326731 0.33655121353004597 1.0000000180025095e-35 1.0000000180025095e-35 0.1962602981524362 -1.017045000748241 0.4295955591443163 -0.34252854887148348 1.0000000180025095e-35 -1.0608854864499624 -0.23841650139744 1.0000000180025095e-35 -0.16105748147189733 1.0000000180025095e-35 1.0000000180025095e-35 1.0000000180025095e-35 -0.79773975000328567
decision_type=2 2 2 2 2 2 2 2 2 2 2 2 2 2 2 2 2 2 2 2 2 2 2 2 2 2 2 2 2 2
left_child=2 4 3 17 7 9 -3 -2 16 20 13 12 14 15 -8 29 -4 23 -17 -18 -5 25 -22 -1 -10 -11 -16 -25 -19 -9
right_child=1 6 8 5 -6 -7 11 10 24 21 -12 -13 -14 -15 26 18 19 28 -20 -21 22 -23 -24 27 -26 -27 -28 -29 -30 -31
leaf_value=-0.0023607000571914801 0.0045396749259310554 -0.0017704502351015439 -0.0053748690949028616 -0.00042378920486474761 -0.0061680476093121973 -0.0061601041989974882 0.0031081822215353601 0.00091022358885248721 -0.0021463551963125391 0.0069059821619938807 -0.013182566487847092 -0.0050446774042744681 -0.0064002104500413956 0.018097835825445718 0.0060302349839498094 0.003977881534396769 -0.0041075792403778809 -0.0041048534672931923 0.013764362368781114 -0.00096020875298625228 -0.0032510250483128405 0.010701372988890985 0.0045220306707465007 0.0014115515297157774 0.0027120664753581499 0.0014517436164437187 0.013076098702935763 0.014239833096969495 0.0014924457571789797 0.0087304030075095445
leaf_weight=25623 19255 44721 130956 27489 5741 10042 26527 3511 30170 24684 823 5633 3661 9149 9302 3578 93796 57354 30081 43999 5018 11289 40623 26341 16846 12129 9249 1362 7002 24046
leaf_count=25623 19255 44721 130956 27489 5741 10042 26527 3511 30170 24684 823 5633 3661 9149 9302 3578 93796 57354 30081 43999 5018 11289 40623 26341 16846 12129 9249 1362 7002 24046
internal_value=0 0.00500108 -0.00172933 0.000698385 0.00881783 0.00306808 0.00129636 0.00976908 -0.00364339 0.00383247 0.0111835 0.00381882 0.00484322 0.0114685 0.00575635 0.0104777 -0.00420982 -0.001945 0.012724 -0.0031026 0.00212957 0.00642142 0.00366742 -7.3358e-05 -0.000405565 0.00510894 0.0095431 0.00204225 -0.00349586 0.00773404
internal_weight=0 195277 564723 248956 96184 131274 99093 90443 315767 121232 71188 54372 48739 70365 45078 61216 268751 117682 33659 137795 73130 48102 45641 53326 47016 36813 18551 27703 64356 27557
internal_count=760000 195277 564723 248956 96184 131274 99093 90443 315767 121232 71188 54372 48739 70365 45078 61216 268751 117682 33659 137795 73130 48102 45641 53326 47016 36813 18551 27703 64356 27557
shrinkage=0.1


Tree=12
num_leaves=31
num_cat=0
split_feature=2 5 29 5 1 5 5 15 15 33 29 33 29 3 13 13 8 1 1 33 33 29 2 24 13 24 8 23 33 33
split_gain=538.68 349.703 162.444 101.983 97.2451 88.7834 66.012 59.2746 56.6565 54.2407 50.7933 46.4923 44.5437 41.0455 39.3311 38.103 35.9332 29.1439 28.55 28.7306 27.9763 27.8081 28.5293 25.367 24.8415 22.7066 22.0584 22.8114 21.9727 21.7052
threshold=-0.026176573926977743 -0.45922066501432407 -0.19807488781169538 -0.45922066501432407 1.0000000180025095e-35 1.0000000180025095e-35 1.6837364199584115 -0.14044299360444354 -0.016756069423181308 0.12006935593097265 -0.18712935491145935 -0.6529004520936067 -0.18712935491145935 -1.0696612312982354 -0.27082680382703245 0.54528657556820981 1.0000000180025095e-35 1.0000000180025095e-35 1.0000000180025095e-35 0.48033755967109393 1.7666472730249074 -0.19807488781169538 -1.1228512410601839 -1.0000000180025095e-35 -0.16627612903411729 -1.0000000180025095e-35 1.0000000180025095e-35 1.0000000180025095e-35 -0.6529004520936067 0.4295955591443163
decision_type=2 2 2 2 2 2 2 2 2 2 2 2 2 2 2 2 2 2 2 2 2 2 2 2 2 2 2 2 2 2
left_child=3 2 4 8 9 28 10 15 12 24 11 -7 14 -13 -1 -6 -15 -10 19 -16 25 22 -5 -21 -2 26 -11 -28 -3 -24
right_child=1 5 -4 21 7 6 -8 -9 17 20 -12 13 -14 16 18 -17 -18 -19 -20 23 -22 -23 29 -25 -26 -27 27 -29 -30 -31
leaf_value=-0.00068038794456666291 -0.00026731294400658803 -0.0050929261588840511 -0.005560868063310939 -0.0056503571151871532 0.010163458056795568 -0.00015178620944837393 -0.0021501460065470046 0.0059311889988022219 -0.0031423374119407665 0.0044035315185192445 -0.0057776201281368768 -0.0033770122745057996 -0.0061510106205774837 0.0037715904708991383 0.0014970833571415949 0.016686774795251377 0.0095356885622443332 0.0019510293359147491 0.012916466873776639 0.0060314389823780254 -0.0049830109506811653 -0.0071389156470630074 -0.0036625188971805738 0.023710767965471377 0.0044175625501919171 0.017316164935438486 0.0067576748706953821 0.013019487956356268 -0.0015190837129910411 -0.001189243579071576
leaf_weight=33960 19256 24150 11049 47140 29237 17252 28950 23950 77626 15835 5421 4332 7567 20377 29841 12907 23048 13135 3214 10583 1762 23161 108495 879 27457 2404 14957 9521 59807 52727
leaf_count=33960 19256 24150 11049 47140 29237 17252 28950 23950 77626 15835 5421 4332 7567 20377 29841 12907 23048 13135 3214 10583 1762 23161 108495 879 27457 2404 14957 9521 59807 52727
internal_value=0 0.00286876 0.00615969 -0.00247072 0.00698304 -0.000152881 0.00186976 0.00990373 -0.000662258 0.00486618 0.00352213 0.00429763 0.00117626 0.00590496 0.00188277 0.0121613 0.00683091 -0.00240522 0.00383809 0.00313166 0.00736552 -0.00385177 -0.00348638 0.00738723 0.00248637 0.00787488 0.00731186 0.00919328 -0.00254709 -0.00285364
internal_weight=0 351672 168335 408328 157286 183337 99380 66094 176805 91192 70430 65009 86044 47757 78477 42144 43425 90761 44517 41303 44479 231523 208362 11462 46713 42717 40313 24478 83957 161222
internal_count=760000 351672 168335 408328 157286 183337 99380 66094 176805 91192 70430 65009 86044 47757 78477 42144 43425 90761 44517 41303 44479 231523 208362 11462 46713 42717 40313 24478 83957 161222
shrinkage=0.1


Tree=13
num_leaves=31
num_cat=0
split_feature=4 5 5 2 29 29 1 13 33 5 5 23 29 13 1 8 3 13 18 8 15 0 33 18 15 8 23 33 13 3
split_gain=455.721 177.785 172.191 107.961 88.6821 69.4511 52.6551 49.8235 45.9116 42.4284 44.4127 39.4935 38.0185 39.3993 33.7604 30.1528 27.5146 26.264 26.2172 24.7965 23.8936 22.6191 22.2003 21.7747 20.7928 20.4479 20.028 17.767 17.3319 16.8522
threshold=0.58263456856037554 -0.45922066501432407 -0.45922066501432407 -0.52314004641372691 -0.19807488781169538 -0.19807488781169538 1.0000000180025095e-35 0.077390788749676823 -0.18861114727359132 1.0000000180025095e-35 1.6837364199584115 -0.33983095285575154 -0.1837614986344637 0.32687285493561347 1.0000000180025095e-35 1.0000000180025095e-35 -1.0063573289177732 -0.035658949539842458 0.41804341089830438 1.0000000180025095e-35 -0.3740738505592433 -0.96245115051601426 0.22324475700208721 0.25281518268242281 -0.44966030405760077 1.0000000180025095e-35 0.5924560296019683 1.7666472730249074 -0.52827928328884466 -1.0608854864499624
decision_type=2 2 2 2 2 2 2 2 2 2 2 2 2 2 2 2 2 2 2 2 2 2 2 2 2 2 2 2 2 2
left_child=1 3 4 19 7 8 22 21 28 -3 14 29 13 25 17 27 -9 -11 26 -1 -15 -2 -4 -23 -19 -8 -18 -13 -5 -10
right_child=2 9 6 5 -6 -7 12 16 11 10 -12 15 -14 20 -16 -17 18 24 -20 -21 -22 23 -24 -25 -26 -27 -28 -29 -30 -31
leaf_value=-0.0034206347899333259 -8.474596896761852e-05 -0.0041825779987309745 -0.0027829066697042811 -0.0022987788797859 -0.0049862428819666335 -0.0051125820653848096 -0.00068262262190325884 0.0021456171901586235 -0.0034937933028901555 -0.0030225436193238799 -0.0043014964499594813 0.0040790011445712001 -0.0062232761603060235 0.011723767120988177 0.0031875160548504849 0.0086164114556523883 0.01076554961086227 0.0031092839240937 0.0062557858289115078 -0.00025590498890891347 0.004406674964064038 0.0075906551436518465 0.0014582952844359683 0.0006677675912344068 -0.0014027038598342972 0.0051428630128516417 0.016186361624086508 -0.013492902726945231 0.0017026856040464227 0.0027039050277001108
leaf_weight=54343 6204 152837 28687 14879 5528 11798 13350 3859 5099 52547 51808 23268 3541 9091 18123 24957 25484 16405 9370 45477 8766 28417 21661 5408 27062 10982 9304 590 39723 31432
leaf_count=54343 6204 152837 28687 14879 5528 11798 13350 3859 5099 52547 51808 23268 3541 9091 18123 24957 25484 16405 9370 45477 8766 28417 21661 5408 27062 10982 9304 590 39723 31432
internal_value=0 -0.00141206 0.00424653 0.000575404 0.00729977 0.00225559 0.00127286 0.00807116 0.00287675 -0.00298045 -0.00187329 0.00432549 0.00372926 0.00456459 -0.000771095 0.0061864 0.0102431 -0.0015183 0.0109508 -0.00197882 0.00813181 0.00546577 -0.000958233 0.00648381 0.000300178 0.00194665 0.0122153 0.00364445 0.00061229 0.00183883
internal_weight=0 570348 189652 251566 93574 151746 96078 88046 139948 318782 165945 85346 45730 42189 114137 48815 48017 96014 44158 99820 17857 40029 50348 33825 43467 24332 34788 23858 54602 36531
internal_count=760000 570348 189652 251566 93574 151746 96078 88046 139948 318782 165945 85346 45730 42189 114137 48815 48017 96014 44158 99820 17857 40029 50348 33825 43467 24332 34788 23858 54602 36531
shrinkage=0.1


Tree=14
num_leaves=31
num_cat=0
split_feature=1 5 8 4 29 15 33 5 29 15 33 8 33 13 8 24 13 29 13 29 9 2 29 33 13 8 33 5 13 5
split_gain=390.982 160.276 135.053 123.79 89.2392 66.0906 58.4276 53.4299 50.9523 48.6937 46.8091 43.9332 39.6867 31.6844 31.3615 29.7623 27.3888 25.561 25.4279 25.1736 24.6558 24.3595 21.5958 22.5786 20.6354 20.4667 19.049 18.8666 18.2923 17.8973
threshold=1.0000000180025095e-35 -0.45922066501432407 1.0000000180025095e-35 1.0000000180025095e-35 -0.19807488781169538 0.1962602981524362 -0.75607585316472126 -0.45922066501432407 -0.19807488781169538 1.0000000180025095e-35 0.48033755967109393 1.0000000180025095e-35 0.4295955591443163 0.52381525839106868 1.0000000180025095e-35 -1.0000000180025095e-35 -0.39949204555877421 -0.17870971421897014 -0.31120751997981971 -0.19807488781169538 -0.65126532026316952 -0.38726142608823583 -0.19807488781169538 0.4295955591443163 0.54528657556820981 1.0000000180025095e-35 1.8182349735604648 1.0000000180025095e-35 0.26851804380298966 -0.45922066501432407
decision_type=2 2 2 2 2 2 2 2 2 2 2 2 2 2 2 2 2 2 2 2 2 2 2 2 2 2 2 2 2 2
left_child=1 3 5 14 6 7 -4 16 10 13 18 -3 28 26 -1 20 -2 -18 -5 21 -12 -14 23 -16 -9 -20 29 -23 -13 -8
right_child=2 11 4 8 -6 -7 9 24 -10 -11 15 12 19 -15 22 -17 17 -19 25 -21 -22 27 -24 -25 -26 -27 -28 -29 -30 -31
leaf_value=-0.0029189185115249452 0.0016058677828682062 -0.0040067938458057187 0.0022865860681002682 -0.00062969238744402418 -0.005570726260372672 -0.001513795169871356 0.012559247450749631 -0.00053458422051423399 -0.0044893790270011426 0.005543106401431401 0.00037190469182724805 -0.0036339711529409257 -0.0014918436913795485 0.015844912253574782 -0.00070048048357809842 0.018690483310060558 0.0090397649791384982 -0.004527858281016592 0.00086654538231815145 -0.0061532185310984259 0.007080246390466941 0.00021024575626332729 -0.0055943537869149827 0.003348641800814955 0.0050340876264588236 0.0050630636285524389 -0.012691063273381046 0.0051859625304189133 -0.0009157734279199892 0.0072055228406480362
leaf_weight=70394 8422 151386 13718 23520 5078 39574 12990 25827 8485 19853 6788 75909 20632 12234 41286 1883 22951 1478 19413 5170 28408 13847 6082 20664 8964 28957 376 16947 36740 12024
leaf_count=70394 8422 151386 13718 23520 5078 39574 12990 25827 8485 19853 6788 75909 20632 12234 41286 1883 22951 1478 19413 5170 28408 13847 6082 20664 8964 28957 376 16947 36740 12024
internal_value=0 -0.0012796 0.00402041 0.000586846 0.00723697 0.00173217 0.00815048 0.00363122 0.00297465 0.00955001 0.00355585 -0.00276911 -0.00166203 0.0116643 -0.0014392 0.00644177 0.00652352 0.0082189 0.00206737 0.000498373 0.00578646 0.00116708 9.18897e-05 0.000650142 0.0009002 0.00337882 0.00964994 0.00294855 -0.00274744 0.00998576
internal_weight=0 576511 183489 255880 76273 107216 71195 67642 117454 57477 108969 320631 169245 37624 138426 37079 32851 24429 71890 56596 35196 51426 68032 61950 34791 48370 25390 30794 112649 25014
internal_count=760000 576511 183489 255880 76273 107216 71195 67642 117454 57477 108969 320631 169245 37624 138426 37079 32851 24429 71890 56596 35196 51426 68032 61950 34791 48370 25390 30794 112649 25014
shrinkage=0.1


Tree=15
num_leaves=31
num_cat=0
split_feature=2 5 5 15 29 1 5 13 33 33 29 13 5 4 4 1 33 33 29 23 33 15 33 15 15 24 29 29 1 8
split_gain=320.549 122.843 114.212 73.9059 62.4101 55.8958 47.7004 44.018 41.9863 37.965 34.8666 36.9677 34.7195 31.1868 29.8658 27.1363 25.6595 24.4907 23.5222 22.7907 22.2032 21.7211 21.6973 20.0722 19.9085 19.504 19.1811 18.5677 17.8515 17.417
threshold=0.55634010394989597 -0.45922066501432407 -0.45922066501432407 0.1962602981524362 -0.19807488781169538 1.0000000180025095e-35 1.0000000180025095e-35 0.25005596438251976 -0.44570394994259804 1.9738437751759161 -0.19807488781169538 0.55602223415678032 2.398055448282657 2.1278227944326731 2.1278227944326731 1.0000000180025095e-35 1.869822674096022 -0.23850744779158936 -0.18712935491145935 0.5924560296019683 0.48033755967109393 0.27184675165079369 0.37885355861753867 -0.3740738505592433 -2.1606627517043715 -1.0000000180025095e-35 -0.19807488781169538 -0.18207757049596582 1.0000000180025095e-35 1.0000000180025095e-35
decision_type=2 2 2 2 2 2 2 2 2 2 2 2 2 2 2 2 2 2 2 2 2 2 2 2 2 2 2 2 2 2
left_child=2 4 3 5 8 7 -3 22 -2 13 11 21 14 19 16 -5 17 -8 20 29 -9 24 -1 -13 -4 -22 -19 -7 -26 -10
right_child=1 6 10 15 -6 27 12 18 9 -11 -12 23 -14 -15 -16 -17 -18 26 -20 -21 25 -23 -24 -25 28 -27 -28 -29 -30 -31
leaf_value=-0.0014491997968214838 0.0034675025498338979 -0.0013977662555451726 0.019693119722492821 -0.0026226534982471323 -0.0040721920257094559 0.0073729813161996149 0.00033560922557618762 0.0027999367335538282 0.00382614174066317 -0.017889113871635293 -0.0056697921472426693 0.0027272825613277691 -0.0044218342249973952 0.014202395874326269 0.010662276898938528 0.0015273082851634612 -0.015206981152979608 0.00602030852559128 -0.0044812181926707729 0.010981807565266614 0.0068137266573829423 -0.0038807377798800095 0.0018619754662853685 -0.0012092241482218014 -0.0023913622978185729 0.022387019556801804 -0.0045802814270491186 -0.0044713190518004793 0.0011030262541110725 0.0080569446887351192
leaf_weight=56999 28061 44721 426 76736 5741 19486 16820 29607 16762 556 30746 19710 5633 7958 5715 19828 763 23601 3350 13911 10343 92271 30315 37784 118146 872 1840 1420 16684 23195
leaf_count=56999 28061 44721 426 76736 5741 19486 16820 29607 16762 556 30746 19710 5633 7958 5715 19828 763 23601 3350 13911 10343 92271 30315 37784 118146 872 1840 1420 16684 23195
internal_value=0 0.00349247 -0.00120767 0.000393951 0.00603824 0.00176548 0.00102143 0.00100181 0.00668001 0.00812508 -0.00247041 -0.00212529 0.00301122 0.00835903 0.0038703 -0.00177052 0.0029681 0.00329624 0.00357424 0.00749578 0.0042353 -0.00269778 -0.000299576 0.000140283 -0.00189077 0.0080246 0.00525363 0.00656848 -0.00195896 0.00628212
internal_weight=0 195277 564723 248956 96184 152392 99093 131486 90443 62382 315767 285021 54372 61826 48739 96564 43024 42261 44172 53868 40822 227527 87314 57494 135256 11215 25441 20906 134830 39957
internal_count=760000 195277 564723 248956 96184 152392 99093 131486 90443 62382 315767 285021 54372 61826 48739 96564 43024 42261 44172 53868 40822 227527 87314 57494 135256 11215 25441 20906 134830 39957
shrinkage=0.1


Tree=16
num_leaves=31
num_cat=0
split_feature=1 15 8 5 29 13 15 15 8 13 13 33 29 13 29 13 33 33 33 33 5 13 33 5 33 29 23 13 5 31
split_gain=273.902 120.078 104.182 80.5566 64.4796 48.4508 47.4434 44.2662 38.6871 34.5199 29.9742 28.9223 25.4408 23.682 23.2694 22.7339 21.3746 20.8593 20.8396 20.7843 20.1185 17.1026 16.6736 15.689 15.6793 15.5455 14.3709 14.2843 13.8544 13.4373
threshold=1.0000000180025095e-35 -0.3740738505592433 1.0000000180025095e-35 -0.45922066501432407 -0.19807488781169538 0.33655121353004597 -0.16105748147189733 -0.3740738505592433 1.0000000180025095e-35 -0.072908431490310774 -0.12683071687713962 0.48033755967109393 -0.18039364235746799 0.240743593783073 -0.18712935491145935 0.94673514197991471 0.37885355861753867 0.48033755967109393 1.6651632719713521 0.4295955591443163 -0.45922066501432407 0.65085388502248687 1.4596581698379028 -0.45922066501432407 -0.75607585316472126 -0.19807488781169538 1.0000000180025095e-35 0.094998895287208604 1.0000000180025095e-35 1.5423165358908821
decision_type=2 2 2 2 2 2 2 2 2 2 2 2 2 2 2 2 2 2 2 2 2 2 2 2 2 2 2 2 2 2
left_child=1 3 6 5 7 16 9 13 27 -2 -5 -10 18 -4 17 20 -1 -7 23 -12 -9 -13 25 -11 -15 26 -18 -3 -22 -19
right_child=2 8 4 10 -6 14 -8 15 11 12 19 21 -14 24 -16 -17 22 29 -20 -21 28 -23 -24 -25 -26 -27 -28 -29 -30 -31
leaf_value=-0.00010089471291405339 0.00059386818487629461 -0.0041632176394669389 0.0073811636296848906 -0.0025838217669914973 -0.0046967437326858232 0.004620413283578601 -0.00078629236173402442 0.0061806727415117174 -0.0021337356227088791 0.0091976193323242313 -0.00081785651487015351 -0.00018856708138647625 -0.004786518631143529 0.0047613619962935394 -0.0037307126084042174 0.010296834285658033 0.0029497022039265903 0.011082873725991781 -0.011525705602197421 0.0028924220429436694 -0.0019171141926874514 0.0043401348824267973 -0.0033596882696890519 0.0044339366339228581 0.014298976230636735 -0.0043966918697482668 0.008125246364101819 -0.0022758633133747232 0.003856060292939978 -0.002007365748460734
leaf_weight=48760 24103 98157 18339 65405 5078 22902 52649 16283 112548 14136 45484 42063 2166 2024 2480 6152 13376 9592 630 22600 7585 10401 3232 13532 11615 1900 8958 67799 9197 854
leaf_count=48760 24103 98157 18339 65405 5078 22902 52649 16283 112548 14136 45484 42063 2166 2024 2480 6152 13376 9592 630 22600 7585 10401 3232 13532 11615 1900 8958 67799 9197 854
internal_value=0 -0.00107101 0.00336503 0.000604542 0.00619015 0.00258149 0.00135526 0.00696666 -0.00231408 0.00342153 -0.00105496 -0.00122984 0.00565877 0.00972802 0.00561452 0.00471502 0.0011559 0.0063095 0.00645828 0.000413744 0.00367648 0.000709249 0.00338706 0.00686777 0.0128836 0.00428685 0.00502557 -0.00339217 0.00124675 0.0100127
internal_weight=0 576511 183489 245543 76273 112054 107216 71195 330968 54567 133489 165012 30464 31978 35828 39217 76226 33348 28298 68084 33065 52464 27466 27668 13639 24234 22334 165956 16782 10446
internal_count=760000 576511 183489 245543 76273 112054 107216 71195 330968 54567 133489 165012 30464 31978 35828 39217 76226 33348 28298 68084 33065 52464 27466 27668 13639 24234 22334 165956 16782 10446
shrinkage=0.1


Tree=17
num_leaves=31
num_cat=0
split_feature=2 5 5 23 29 4 29 2 1 18 5 5 5 2 21 23 5 33 13 18 23 13 33 33 8 8 33 33 29 33
split_gain=223.959 88.8809 81.5908 57.9374 44.0309 37.467 36.7329 32.5758 31.1486 32.1223 30.6291 33.2077 30.1731 29.7999 28.8655 22.9448 22.6899 20.5323 19.6222 19.4288 22.1326 17.1012 15.6149 15.5283 15.5038 14.9097 14.7109 14.5539 14.6224 14.5515
threshold=0.55634010394989597 -0.45922066501432407 -0.45922066501432407 1.0000000180025095e-35 -0.19807488781169538 2.1278227944326731 -0.19807488781169538 1.6691608417081991 1.0000000180025095e-35 0.093859199749585412 1.0000000180025095e-35 1.6837364199584115 1.0000000180025095e-35 -0.57524781979472139 -0.22031387797401022 0.28169370211606165 2.398055448282657 1.869822674096022 0.50197795277162283 0.40339339629727183 1.0000000180025095e-35 -0.23036475745601212 2.0254314757114735 1.4596581698379028 1.0000000180025095e-35 1.0000000180025095e-35 -0.18861114727359132 -0.49729165047815532 -0.1837614986344637 0.48033755967109393
decision_type=2 2 2 2 2 2 2 2 2 2 2 2 2 2 2 2 2 2 2 2 2 2 2 2 2 2 2 2 2 2
left_child=2 4 3 13 7 12 8 14 9 21 -4 15 -3 -1 19 -12 17 18 -14 20 -2 -5 25 -22 -15 -9 -7 -17 -29 -11
right_child=1 5 10 6 -6 26 -8 22 -10 29 11 -13 16 24 -16 27 -18 -19 -20 -21 23 -23 -24 -25 -26 -27 -28 28 -30 -31
leaf_value=-0.0025600183857015808 0.004703521247425381 -0.0019021824485859228 -0.0031026618486815387 0.0011681367745010895 -0.003407523040934694 0.0020308483584618726 -0.0042740688158468283 0.0061875985758219326 0.0068389890392564602 -0.001848169930359532 -0.0010614098311140395 -0.0032415946137207053 0.0013198519990657827 -0.0011938209531825016 0.0014451672735989705 -0.0018455097475676156 -0.0045277088221267392 -0.013697829823525987 0.0058806693527873218 0.0013706638706198256 0.010279859524714281 0.0052054898085354059 -0.028574742980905482 -0.0031724737737381208 0.0014851482206657629 0.011287280831015094 0.0094172016470431726 0.0040439779737429203 -0.0045165495067515347 0.0030974567992168556
leaf_weight=62578 21344 39965 151441 16965 5741 4661 7995 10317 15753 22553 81423 51291 28047 38802 21128 7179 5046 763 14214 7823 15910 27494 111 907 48735 12903 6397 22241 2192 8081
leaf_count=62578 21344 39965 151441 16965 5741 4661 7995 10317 15753 22553 81423 51291 28047 38802 21128 7179 5046 763 14214 7823 15910 27494 111 907 48735 12903 6397 22241 2192 8081
internal_value=0 0.00291924 -0.00100945 0.000344256 0.00508469 0.000817357 0.00222427 0.00562375 0.00279617 0.00194806 -0.00207674 -0.00113126 0.000128207 -0.000893613 0.00450476 -0.000173665 0.00181626 0.0025603 0.00285383 0.00591053 0.0068412 0.00366489 0.00884255 0.00955433 0.000297658 0.00902141 0.00630382 0.0021129 0.00327597 -0.000543554
internal_weight=0 195277 564723 248956 96184 99093 98841 90443 90846 75093 315767 164326 88035 150115 67112 113035 48070 43024 42261 45984 38161 44459 23331 16817 87537 23220 11058 31612 24433 30634
internal_count=760000 195277 564723 248956 96184 99093 98841 90443 90846 75093 315767 164326 88035 150115 67112 113035 48070 43024 42261 45984 38161 44459 23331 16817 87537 23220 11058 31612 24433 30634
shrinkage=0.1


Tree=18
num_leaves=31
num_cat=0
split_feature=1 8 8 13 29 30 15 15 33 8 23 33 5 13 13 15 33 4 13 5 33 33 24 29 13 33 3 33 33 5
split_gain=196.508 90.8996 78.9717 65.8709 48.0229 41.2016 42.0967 39.4329 38.8801 43.5905 31.0716 30.1936 30.0276 23.361 22.9446 20.2637 19.286 17.7547 16.7795 15.8026 15.2362 14.9407 14.6962 14.4928 13.794 13.6664 13.0977 13.856 13.5335 13.0132
threshold=1.0000000180025095e-35 1.0000000180025095e-35 1.0000000180025095e-35 0.26851804380298966 -0.19807488781169538 -0.21215256786227607 -0.3740738505592433 -0.6626766731449486 -0.75607585316472126 1.3110167883681032 0.5924560296019683 0.4295955591443163 -0.45922066501432407 0.59058780146010592 0.086337170906818902 -0.30535889200888477 1.869822674096022 2.1278227944326731 0.67590375506248468 -0.45922066501432407 0.48033755967109393 1.7666472730249074 -1.0000000180025095e-35 -0.19807488781169538 0.035342792611108946 0.48033755967109393 -1.3076961405814593 0.48033755967109393 0.73912176235765992 -0.45922066501432407
decision_type=2 2 2 2 2 2 2 2 2 2 2 2 2 2 2 2 2 2 2 2 2 2 2 2 2 2 2 2 2 2
left_child=1 14 7 12 8 6 11 18 -4 10 16 -5 15 21 -1 23 17 24 -2 -16 -8 29 -13 26 -10 -14 -3 -28 -29 -9
right_child=2 3 4 5 -6 -7 20 13 9 -11 -12 22 25 -15 19 -17 -18 -19 -20 -21 -22 -23 -24 -25 -26 -27 27 28 -30 -31
leaf_value=-0.0030271429066707723 0.0032590487748023508 -0.0047862793906108536 0.0011965960702507328 0.003312224370264421 -0.0040855335507632871 -0.0043915640887260713 -0.00026485165132556231 0.00090751666938093743 0.0046095166638474979 0.0022541748682023497 0.01362773571741524 0.0079501500266780031 -0.0025688795801742451 0.0029959307725740455 0.00018250942713357506 -0.0010311064458838428 -0.012559700725004844 0.013971619307207878 0.0096464692586956183 -0.0022180402128605266 0.0034601044654662045 -0.010883547157801354 0.020083608224184764 -0.0038135445960983355 0.0089414391869323383 -0.00017228942539099592 0.0017158222642573201 0.010656253635679527 0.0035072180822983572 -0.0020265654230893818
leaf_weight=157598 19402 2349 13718 29795 5078 8398 34155 28164 15251 13937 9827 13813 79965 20337 49387 41828 485 3787 5219 61659 16184 1466 1076 3981 14190 33873 29924 3802 8724 32628
leaf_count=157598 19402 2349 13718 29795 5078 8398 34155 28164 15251 13937 9827 13813 79965 20337 49387 41828 485 3787 5219 61659 16184 1466 1076 3981 14190 33873 29924 3802 8724 32628
internal_value=0 -0.000907162 0.00285025 0.0002658 0.00530991 0.0023224 0.00291577 0.00110046 0.00598004 0.0071217 0.00867978 0.00514979 -0.000774551 5.33868e-05 -0.00225138 0.000583861 0.0072375 0.00752646 0.00461301 -0.00115041 0.000932723 -0.000907815 0.00882701 0.00196867 0.00669742 -0.00185576 0.0024825 0.00288472 0.00567716 -0.00066725
internal_weight=0 576511 183489 307867 76273 103421 95023 107216 71195 57477 43540 44684 204446 82595 268644 90608 33713 33228 24621 111046 50339 62258 14889 48780 29441 113838 44799 42450 12526 60792
internal_count=760000 576511 183489 307867 76273 103421 95023 107216 71195 57477 43540 44684 204446 82595 268644 90608 33713 33228 24621 111046 50339 62258 14889 48780 29441 113838 44799 42450 12526 60792
shrinkage=0.1


Tree=19
num_leaves=31
num_cat=0
split_feature=2 5 23 33 29 33 30 33 5 3 33 5 2 18 23 29 8 3 30 8 15 13 9 1 16 33 33 3 24 26
split_gain=163.37 98.056 47.9774 46.4955 46.3023 42.816 36.1336 36.3238 34.833 34.4787 29.3362 27.4661 27.1641 26.6709 31.3223 25.0471 23.2968 22.3562 20.9516 21.2132 20.4616 20.0227 18.8472 16.0235 15.1809 14.6099 13.6763 16.9764 15.6279 13.3868
threshold=0.087055609677598261 -0.45922066501432407 0.28169370211606165 -0.6529004520936067 -0.19807488781169538 -0.75607585316472126 -0.21215256786227607 1.8182349735604648 1.0000000180025095e-35 -1.0257633877870482 1.8182349735604648 2.398055448282657 -1.2526488737476511 0.40339339629727183 0.5924560296019683 -0.19807488781169538 1.0000000180025095e-35 -0.83745769931070513 -0.21215256786227607 1.0000000180025095e-35 -1.7689874912931292 0.50197795277162283 1.0000000180025095e-35 1.0000000180025095e-35 3.6923152234307266 0.48033755967109393 0.37885355861753867 -1.0766971225927116 -1.0000000180025095e-35 -0.75355357043308502
decision_type=2 2 2 2 2 2 2 2 2 2 2 2 2 2 2 2 2 2 2 2 2 2 2 2 2 2 2 2 2 2
left_child=2 4 12 -3 5 -2 7 8 20 -7 13 17 -1 14 22 16 23 -10 19 -14 -5 -19 29 -4 -22 -18 -21 -28 -29 -11
right_child=1 3 15 6 -6 9 -8 -9 11 10 -12 -13 18 -15 -16 -17 25 21 -20 26 24 -23 -24 -25 -26 -27 27 28 -30 -31
leaf_value=-0.0039303143646506828 0.0008938005474521493 -0.0025664757750204206 -0.0010459517109781119 0.031891697386850666 -0.0030668025016469475 -0.00070915108089036113 -0.0047317729347173335 -0.010053228831806191 -0.00039179424614759921 0.0065538999789019683 -0.0071505883478614465 -0.0028828378552059192 -0.0021646585171720858 0.0020399299137716614 0.010217709552747317 -0.00409008763520938 0.0014933575557486106 0.0035884889392637127 -0.0042519677358032063 -0.0010972773215175578 -0.00033604805415816735 0.0080339620310800764 0.0077026812434322703 0.0035949831453546428 0.034559979569911962 0.0053998359540574723 -0.0032549964581846322 0.0015116930265381644 0.012424098421779077 0.0027896659319468936
leaf_weight=54024 34018 48611 51559 199 9928 9794 9711 2594 8550 14819 1798 5951 116246 16266 17553 10949 34289 27987 24609 79088 46516 15881 23610 8694 125 13282 7666 38259 1359 26065
leaf_count=54024 34018 48611 51559 199 9928 9794 9711 2594 8550 14819 1798 5951 116246 16266 17553 10949 34289 27987 24609 79088 46516 15881 23610 8694 125 13282 7666 38259 1359 26065
internal_value=0 0.00171933 -0.00125026 3.46747e-05 0.00353838 0.00399402 0.00111067 0.00163696 0.00192519 0.00495361 0.0055076 0.00355519 -0.00188518 0.0057391 0.00647247 0.00046703 0.000929783 0.0042861 -0.00147172 -0.00118972 -0.000106003 0.00519783 0.00545315 -0.000376304 -0.000242525 0.00258406 -0.000292898 0.00105252 0.00188602 0.00415407
internal_weight=0 319976 440024 166125 153851 143923 117514 107803 105209 109905 100111 58369 321251 98313 82047 118773 107824 52418 267227 242618 46840 43868 64494 60253 46641 47571 126372 47284 39618 40884
internal_count=760000 319976 440024 166125 153851 143923 117514 107803 105209 109905 100111 58369 321251 98313 82047 118773 107824 52418 267227 242618 46840 43868 64494 60253 46641 47571 126372 47284 39618 40884
shrinkage=0.1


Tree=20
num_leaves=31
num_cat=0
split_feature=2 13 15 29 1 3 29 33 8 24 33 15 5 33 33 23 18 13 5 25 18 0 1 23 13 18 18 23 15 8
split_gain=143.721 81.5928 60.6831 52.1907 46.3582 37.7345 39.6269 33.7783 32.2847 29.0714 25.5478 22.2228 20.0474 19.5536 19.4056 17.0042 16.8965 16.2115 15.9365 13.2625 12.9807 22.9954 12.7709 11.8954 11.8462 11.7776 11.1797 10.7493 10.7365 9.43982
threshold=1.2005054151225938 -0.10430209970586056 0.1962602981524362 -0.19807488781169538 1.0000000180025095e-35 -1.0257633877870482 -0.19807488781169538 0.48033755967109393 1.0000000180025095e-35 -1.0000000180025095e-35 1.356482768766788 -0.3740738505592433 -0.45922066501432407 -0.75607585316472126 1.6651632719713521 0.9032183570878749 0.41804341089830438 0.31715383056108565 -0.45922066501432407 -0.68568436468588823 -0.006629705244486632 0.18271007384174218 1.0000000180025095e-35 -0.33983095285575154 -0.10430209970586056 0.13656809254261074 0.38960775472111103 0.28169370211606165 -2.6141814726945158 1.0000000180025095e-35
decision_type=2 2 2 2 2 2 2 2 2 2 2 2 2 2 2 2 2 2 2 2 2 2 2 2 2 2 2 2 2 2
left_child=1 11 3 4 7 -2 8 12 14 10 19 18 25 -6 16 26 24 -10 23 -9 21 -13 -4 -1 -7 27 -15 -3 -14 -23
right_child=5 2 22 -5 13 6 -8 9 17 -11 -12 20 28 15 -16 -17 -18 -19 -20 -21 -22 29 -24 -25 -26 -27 -28 -29 -30 -31
leaf_value=-0.000989534304377778 -0.0032829377277998981 0.0015978382381461053 -0.0018349905551680306 -0.0035727739263517518 -0.00020272903199701614 0.0017774985177690279 -0.0038423136203544258 0.0086619669822391773 0.0049887393747290384 0.013261403518097115 -0.0022723908432628771 -0.0024812782943706632 0.026875929491860531 0.0058193972286535245 -0.0086891276350420116 0.0099555965537591936 -0.00075143475391413039 0.0089309981801252176 -0.0016154188337322126 0.0032691073904563732 -0.003558341967832604 -0.00088909918120781348 0.00059243771267683705 0.0018797926846224021 0.0060088872975915886 -0.00056768032532138614 0.00041384298500400548 0.005147242565850813 -0.00084710909095686072 0.0025624259487506545
leaf_weight=25975 7162 26653 89629 18161 5789 10852 5621 5420 23447 2929 7639 108273 140 19317 1435 8480 8439 18791 71970 28748 57934 19033 28586 32559 16951 14913 4771 12550 64257 13576
leaf_count=25975 7162 26653 89629 18161 5789 10852 5621 5420 23447 2929 7639 108273 140 19317 1435 8480 8439 18791 71970 28748 57934 19033 28586 32559 16951 14913 4771 12550 64257 13576
internal_value=0 -0.00051254 0.000578968 0.00156172 0.00202424 0.00368961 0.00427342 0.0012892 0.00484426 0.00363045 0.00295571 -0.00163276 0.000405434 0.00515258 0.00271613 0.0061045 0.00316773 0.00674259 -0.000618837 0.00412457 -0.0022983 -0.00178014 -0.00124801 0.000606502 0.0043573 0.00182422 0.00474874 0.0027341 -0.000786839 0.000547863
internal_weight=0 667302 337982 219767 201606 92698 85536 163249 79915 44736 41807 329320 118513 38357 37677 32568 36242 42238 130504 34168 198816 140882 118215 58534 27803 54116 24088 39203 64397 32609
internal_count=760000 667302 337982 219767 201606 92698 85536 163249 79915 44736 41807 329320 118513 38357 37677 32568 36242 42238 130504 34168 198816 140882 118215 58534 27803 54116 24088 39203 64397 32609
shrinkage=0.1


Tree=21
num_leaves=31
num_cat=0
split_feature=1 15 15 13 8 29 8 29 33 13 33 33 8 24 33 23 24 33 30 33 9 33 3 23 33 18 18 13 5 29
split_gain=120.737 60.7094 58.3301 43.0169 34.79 30.0861 29.8338 27.5425 27.4802 22.8688 20.8099 20.1141 18.9345 18.2786 17.9516 18.1712 17.1985 16.899 15.7538 15.5683 14.4646 14.3009 13.3218 12.884 12.421 12.2118 11.4405 12.1945 11.4354 11.0393
threshold=1.0000000180025095e-35 -0.3740738505592433 -0.6626766731449486 -0.24679356844839648 1.0000000180025095e-35 -0.19807488781169538 1.0000000180025095e-35 -0.1837614986344637 0.4295955591443163 -0.072908431490310774 0.4295955591443163 1.8182349735604648 1.3110167883681032 -1.0000000180025095e-35 1.6152669714533541 0.9032183570878749 -1.0000000180025095e-35 -0.75607585316472126 -0.19273034620689558 0.37885355861753867 -0.65126532026316952 1.9214103746315792 -0.43994896044263238 -0.33983095285575154 1.356482768766788 -0.006629705244486632 0.078167504836527832 -0.52827928328884466 -0.45922066501432407 -0.19807488781169538
decision_type=2 2 2 2 2 2 2 2 2 2 2 2 2 2 2 2 2 2 2 2 2 2 2 2 2 2 2 2 2 2
left_child=1 3 7 19 14 6 -5 9 28 -2 25 16 17 24 15 26 20 -6 21 -1 -12 23 -21 -19 -10 -3 27 -4 -8 -22
right_child=2 10 4 5 12 -7 8 -9 13 -11 11 -13 -14 -15 -16 -17 -18 18 -20 22 29 -23 -24 -25 -26 -27 -28 -29 -30 -31
leaf_value=-0.0019805844621630353 0.0033935796361430717 -0.0016087353326038605 -0.0020377366625918317 0.000258036177687557 0.00037356324531121306 -0.0031533535379675219 0.0035809328512421898 -0.0035518385711748625 0.006301671568861124 0.0080446694060454377 -0.0019338983944792759 -0.0062689062791555176 -9.6269297002443373e-05 0.016369164503613486 -0.0071041922774562468 0.0036589664123092172 0.0067993245684523336 0.0038447075341935771 -0.0032233679342065372 -0.0012321427896954515 0.00086055517456626015 -0.013956809083206788 0.002594736279027338 0.0080074376774796219 -0.00012110584461194812 -0.0031767562961397054 -0.0020567772349475168 0.0017788898673049261 0.00057825321491204273 -0.0037139172940091657
leaf_weight=66795 18968 136713 12004 54134 8954 12139 24005 3258 19957 23881 40320 5778 13498 1603 3499 12836 3387 13762 2040 19122 60987 360 17350 16173 3546 78008 26591 27665 26892 5775
leaf_count=66795 18968 136713 12004 54134 8954 12139 24005 3258 19957 23881 40320 5778 13498 1603 3499 12836 3387 13762 2040 19122 60987 360 17350 16173 3546 78008 26591 27665 26892 5775
internal_value=0 -0.000711074 0.00223415 0.000480315 0.00120125 0.00160796 0.00205208 0.00531182 0.00332991 0.00598577 -0.00159496 -0.000517281 0.00315514 0.00603731 -9.48101e-05 0.000215267 -0.000216447 0.00421807 0.00528267 -0.00107329 -0.000438355 0.00585544 0.000588332 0.00609371 0.00533264 -0.0021784 -0.000451853 0.000623963 0.00199443 0.000464857
internal_weight=0 576511 183489 245543 137382 142276 130137 46107 76003 42849 330968 116247 54787 25106 82595 79096 110469 41289 32335 103267 107082 30295 36472 29935 23503 214721 66260 39669 50897 66762
internal_count=760000 576511 183489 245543 137382 142276 130137 46107 76003 42849 330968 116247 54787 25106 82595 79096 110469 41289 32335 103267 107082 30295 36472 29935 23503 214721 66260 39669 50897 66762
shrinkage=0.1


Tree=22
num_leaves=31
num_cat=0
split_feature=4 5 13 5 5 29 21 2 28 18 23 23 4 29 15 18 23 18 9 18 3 15 29 0 18 23 24 18 5 9
split_gain=104.032 71.8942 47.9879 33.2968 38.4637 24.2999 24.7749 24.0928 21.7894 21.6575 20.6747 20.5551 20.5316 17.4622 19.4239 16.2067 15.957 14.389 13.9995 13.2752 12.0601 11.4325 16.0301 11.3776 15.1045 10.6427 10.6203 10.5708 10.3239 10.2833
threshold=1.3552286814965242 -0.45922066501432407 0.25871768876290963 1.0000000180025095e-35 1.6837364199584115 -0.18544542677296152 -0.22031387797401022 -0.37530914004108623 -0.1495247838773455 0.44971492506604344 0.5924560296019683 -0.33983095285575154 2.1278227944326731 -0.18712935491145935 -0.9031790250477455 0.76088921401989684 1.0000000180025095e-35 0.078167504836527832 -0.65126532026316952 0.14527831302401134 -1.0257633877870482 -1.0955809062676394 -0.11303651681755415 0.067386031354824419 -0.20202233568730507 1.0000000180025095e-35 -1.0000000180025095e-35 0.27480128628941874 2.398055448282657 -0.65126532026316952
decision_type=2 2 2 2 2 2 2 2 2 2 2 2 2 2 2 2 2 2 2 2 2 2 2 2 2 2 2 2 2 2
left_child=1 2 7 21 11 6 12 -1 10 16 18 -5 17 14 -13 26 23 25 -4 -20 -8 22 -3 -9 -25 -2 -12 29 -6 -16
right_child=5 3 8 4 28 -7 20 9 -10 -11 15 13 -14 -15 27 -17 -18 -19 19 -21 -22 -23 -24 24 -26 -27 -28 -29 -30 -31
leaf_value=-0.0014171920474574994 0.0036232016998868442 0.024192625782810728 -0.00025762198539547234 -0.0009551478217771376 -0.0014718934293568879 -0.0032636801382391108 -0.004878388123610352 -0.00049672072385584969 -0.0026499087785193769 -0.0032344702730961027 0.0058718149283425976 0.0055145394573828735 0.0083995705405911 -0.0031761836192052239 4.7420846795551576e-05 0.00096646398239039308 0.0030429839437528614 0.00096671434015633 0.0037931257073951074 -2.9663997039492363e-05 0.0020969262838684867 -0.0023594366080715106 -0.0016435471206903457 0.0046794535722361977 -0.0007698183311188986 0.0080001045679796625 0.015247176280288774 -0.00077119349372023851 -0.0041401008651542615 0.0032898578261436615
leaf_weight=86992 14312 390 20757 56167 37486 4957 2844 46064 7740 11907 21008 12932 14432 7162 15363 7244 33887 11225 36591 12084 19298 178683 625 11770 8958 9080 1282 18189 23650 26921
leaf_count=86992 14312 390 20757 56167 37486 4957 2844 46064 7740 11907 21008 12932 14432 7162 15363 7244 33887 11225 36591 12084 19298 178683 625 11770 8958 9080 1282 18189 23650 26921
internal_value=0 -0.000390413 0.000748004 -0.0013139 -0.000418976 0.00350613 0.0039775 -0.00016725 0.00245985 0.000798545 0.00285948 0.000513303 0.0052309 0.00153703 0.00199689 0.00507561 0.00127552 0.00390986 0.00191682 0.00284408 0.00120099 -0.00229932 0.00828365 0.000378791 0.00232445 0.00532217 0.00641103 0.00124465 -0.00250407 0.00211179
internal_weight=0 683852 306284 377568 197870 76148 71191 199578 106706 112586 98966 136734 49049 80567 73405 29534 100679 34617 69432 48675 22142 179698 1015 66792 20728 23392 22290 60473 61136 42284
internal_count=760000 683852 306284 377568 197870 76148 71191 199578 106706 112586 98966 136734 49049 80567 73405 29534 100679 34617 69432 48675 22142 179698 1015 66792 20728 23392 22290 60473 61136 42284
shrinkage=0.1


Tree=23
num_leaves=31
num_cat=0
split_feature=13 5 1 1 8 15 29 31 33 5 5 18 23 8 15 33 23 33 18 33 25 33 8 1 33 31 33 24 25 24
split_gain=89.1718 47.3452 39.8624 37.7194 24.1163 23.9085 21.5951 22.3152 24.3074 21.3266 23.638 19.3245 17.0221 15.019 15.0107 14.7679 14.6118 14.1373 12.427 12.2426 11.8652 11.4135 11.2253 10.9226 10.0224 9.95131 8.57261 9.07643 8.41616 8.32738
threshold=0.55602223415678032 -0.45922066501432407 1.0000000180025095e-35 1.0000000180025095e-35 1.0000000180025095e-35 -0.53211825250395706 -0.19807488781169538 1.5423165358908821 -0.54972505102249214 1.0000000180025095e-35 1.6837364199584115 0.38960775472111103 0.5924560296019683 1.0000000180025095e-35 -0.73826312664330607 0.48033755967109393 -0.65059328034165809 0.48033755967109393 -0.31518871171283036 0.4295955591443163 -0.82076831732261091 1.869822674096022 1.0000000180025095e-35 1.0000000180025095e-35 1.7666472730249074 0.93243469873458029 0.48033755967109393 -1.0000000180025095e-35 -0.82076831732261091 -1.0000000180025095e-35
decision_type=2 2 2 2 2 2 2 2 2 2 2 2 2 2 2 2 2 2 2 2 2 2 2 2 2 2 2 2 2 2
left_child=1 3 5 4 -1 15 7 8 -4 -3 13 12 21 -11 -10 -2 -6 18 -18 -7 -19 22 -5 26 29 -22 -15 -28 -24 -21
right_child=2 9 6 11 16 19 -8 -9 14 10 -12 -13 -14 23 -16 -17 17 20 -20 24 25 -23 28 -25 -26 -27 27 -29 -30 -31
leaf_value=-0.0014871041238972878 0.0016805165137687081 -0.0022713105464858691 0.0008766454981885244 0.0012672846685178429 -0.0010306439918330507 -0.00091617842908830105 -0.0034871177901936545 -0.0055108761329443088 0.010088822427926185 -0.00099018559843132184 -0.0024171059926948383 -0.0010931801732132756 0.0074917022627492297 -0.00025194904406199262 0.0053679696821480162 0.0055893786059025763 0.0023584026611301345 0.0079638719587888894 -0.00071589105052018414 0.0016580626295232697 0.0050369956865402264 -0.01196345721536847 0.0092080733974302786 0.0041345066208136319 -0.0055465933581234162 -6.880926303602811e-05 0.0021960691545202908 0.015885171277515323 0.0035901812969825215 0.0097730569175401606
leaf_weight=90493 31669 152491 9402 23675 32492 52063 3268 1962 9133 57757 51676 12120 8302 33254 25656 13911 23776 5044 29416 28617 7311 535 3184 10926 1861 7988 13781 502 16412 1323
leaf_count=90493 31669 152491 9402 23675 32492 52063 3268 1962 9133 57757 51676 12120 8302 33254 25656 13911 23776 5044 29416 28617 7311 535 3184 10926 1861 7988 13781 502 16412 1323
internal_value=0 -0.00060094 0.00195246 0.000399581 -0.000288011 0.00103003 0.0043685 0.00492474 0.00538807 -0.00141522 -0.000637673 0.00250342 0.00333997 0.000153532 0.00660731 0.0028735 0.000735404 0.00151575 0.000658271 2.81089e-05 0.00375783 0.00255315 0.00273263 0.00128344 0.00157405 0.00237112 0.000628144 0.0026772 0.00450299 0.00201665
internal_weight=0 581135 178865 260748 196520 129444 49421 46153 44191 320387 167896 64228 52108 116220 34789 45580 106027 73535 53192 83864 20343 43806 43271 58463 31801 15299 47537 14283 19596 29940
internal_count=760000 581135 178865 260748 196520 129444 49421 46153 44191 320387 167896 64228 52108 116220 34789 45580 106027 73535 53192 83864 20343 43806 43271 58463 31801 15299 47537 14283 19596 29940
shrinkage=0.1


Tree=24
num_leaves=31
num_cat=0
split_feature=2 23 18 30 1 9 33 3 5 8 18 0 33 33 23 33 33 23 29 2 8 31 24 33 18 31 5 24 8 5
split_gain=76.4813 58.4359 41.6557 35.4828 28.4766 26.3807 21.9368 21.688 20.8366 19.9656 19.6773 16.6264 17.3508 16.4493 14.1042 13.339 14.961 13.2953 13.0749 12.7956 12.4481 11.7744 10.426 9.7713 9.73205 9.02983 8.80836 8.73342 8.54064 8.39534
threshold=1.4133399824534167 1.0000000180025095e-35 0.23074042543185028 -0.21215256786227607 1.0000000180025095e-35 -0.65126532026316952 0.12006935593097265 -1.0257633877870482 -0.45922066501432407 1.0000000180025095e-35 0.04047947701581027 0.12537382683326101 0.27483245753764446 1.4080704693023454 1.8355053395455949 1.4080704693023454 -0.75607585316472126 0.9032183570878749 -0.19807488781169538 -0.10585848090797531 1.3110167883681032 1.5423165358908821 -1.0000000180025095e-35 2.0254314757114735 -0.11624993552694808 1.0000000180025095e-35 -0.45922066501432407 -1.0000000180025095e-35 1.0000000180025095e-35 1.0000000180025095e-35
decision_type=2 2 2 2 2 2 2 2 2 2 2 2 2 2 2 2 2 2 2 2 2 2 2 2 2 2 2 2 2 2
left_child=1 5 3 4 6 22 28 -2 10 21 11 -7 -13 19 27 16 -6 -18 20 26 23 24 -1 25 -9 -11 -8 -4 -3 -10
right_child=7 2 14 -5 15 8 13 9 29 18 -12 12 -14 -15 -16 -17 17 -19 -20 -21 -22 -23 -24 -25 -26 -27 -28 -29 -30 -31
leaf_value=-0.0025534077880545697 -0.003161293157969937 -0.0010237519848621554 -0.0016884426932792494 -0.0029733457462316881 0.00023543372640337271 0.00029934924683088285 0.0039146903594941716 0.0042239806637139358 -0.0020707282423234443 0.0041978988047661056 -0.0020326102193683258 0.0011400393729876883 0.0063147508488105618 -0.00184147516515734 0.0015505381779523071 -0.003209273483105532 0.0049320010261852633 0.010116436298551785 -0.0024215752088318811 0.0051993092719550176 0.0020326532983246394 -0.0062269456301059954 -8.4528627979528243e-05 -0.022752220848122159 0.00053164821427012759 0.0082806643623660071 0.00073780691448768754 0.0031551832044159596 0.0012343901000173598 -0.00058194766348624585
leaf_weight=118372 5025 29559 74631 14796 4642 71421 15872 13559 72121 7940 25217 16175 10810 6774 19620 1905 17038 6970 2047 23009 6815 1725 19994 111 15075 17049 19389 3918 38648 79773
leaf_count=118372 5025 29559 74631 14796 4642 71421 15872 13559 72121 7940 25217 16175 10810 6774 19620 1905 17038 6970 2047 23009 6815 1725 19994 111 15075 17049 19389 3918 38648 79773
internal_value=0 -0.000317871 0.000806962 0.0017165 0.00214012 -0.00107007 0.00150874 0.00316585 -0.000504291 0.00366015 0.000459672 0.00109833 0.00321299 0.00282264 -0.000847789 0.00489354 0.00543232 0.00643715 0.00532591 0.00336486 0.00582282 0.0017967 -0.00219665 0.00685191 0.00228007 0.00698341 0.00216781 -0.00144684 0.000255775 -0.00128884
internal_weight=0 690654 276771 178602 163806 413883 133251 69346 275517 64321 123623 98406 26985 65044 98169 30555 28650 24008 33962 58270 31915 30359 138366 25100 28634 24989 35261 78549 68207 151894
internal_count=760000 690654 276771 178602 163806 413883 133251 69346 275517 64321 123623 98406 26985 65044 98169 30555 28650 24008 33962 58270 31915 30359 138366 25100 28634 24989 35261 78549 68207 151894
shrinkage=0.1


Tree=25
num_leaves=31
num_cat=0
split_feature=13 15 0 15 29 33 33 30 18 0 9 33 23 33 5 29 2 1 2 5 23 33 8 8 11 25 15 2 18 23
split_gain=69.4062 40.4028 31.7767 29.5664 24.304 21.5897 20.2871 19.5627 19.5546 32.3419 18.1452 14.5266 14.4569 14.3075 13.9852 13.8176 13.3981 12.9192 12.6753 11.0421 10.8795 10.6171 10.3638 9.56959 8.78958 8.7287 7.67576 7.55898 7.46211 7.34035
threshold=0.61392972573422788 -0.53211825250395706 -0.62012769391364886 -0.3740738505592433 -0.19807488781169538 -0.34252854887148348 1.9214103746315792 -0.21215256786227607 -0.019041215345210128 0.18271007384174218 1.0000000180025095e-35 -0.49729165047815532 -0.65059328034165809 1.7666472730249074 -0.45922066501432407 -0.19807488781169538 -0.6442355761019537 1.0000000180025095e-35 -0.85025524349361248 -0.45922066501432407 -0.33983095285575154 0.22324475700208721 1.0000000180025095e-35 1.0000000180025095e-35 0.79951057195239772 1.0000000180025095e-35 0.34056171020115228 -1.1762171498145626 -0.40681225234924273 1.5247430120596881
decision_type=2 2 2 2 2 2 2 2 2 2 2 2 2 2 2 2 2 2 2 2 2 2 2 2 2 2 2 2 2 2
left_child=1 2 20 7 5 -4 8 10 9 12 17 -12 -3 16 26 18 -7 -2 -11 27 -1 -20 24 -23 -18 -19 -5 -14 -25 -10
right_child=3 6 4 14 -6 13 -8 -9 29 15 11 -13 19 -15 -16 -17 22 25 21 -21 -22 23 -24 28 -26 -27 -28 -29 -30 -31
leaf_value=-0.0022340537896914695 0.0012290855796746403 -0.0022304980850745867 8.7326697084362588e-05 0.0031734588213069301 -0.0029073291206209704 0.00010912111370511291 -0.0084066285469272545 -0.0025851489590003641 -0.0022514196866451428 -0.00073748826092120512 0.0013557275127767134 0.0068739003363441718 -0.0019571125830997334 -0.0065054559374388803 -0.00046003244301960492 -0.0035578770681035966 0.0014899107298975485 0.0091571128061029346 0.0013414825501574291 -0.0013087876428142804 0.00015469192388921851 0.0024083850373220281 0.004932554032645549 0.0099208753042839808 0.0054573814019027896 0.0029257188978858845 0.00049378799577627067 0.0011831890484658935 0.0042469691401841574 0.00023209557000401253
leaf_weight=36357 26520 74451 39080 24135 10987 12191 3761 5087 120349 13040 6031 22827 9312 1565 50708 4904 24077 3915 22205 66787 40091 10096 33903 4283 7270 5279 19188 43342 5052 13207
leaf_count=36357 26520 74451 39080 24135 10987 12191 3761 5087 120349 13040 6031 22827 9312 1565 50708 4904 24077 3915 22205 66787 40091 10096 33903 4283 7270 5279 19188 43342 5052 13207
internal_value=0 -0.000500688 0.000634356 0.00182397 0.00159131 0.00200988 -0.00109762 0.00338544 -0.0010266 -0.000510632 0.00385581 0.00572066 -0.0011368 0.00296086 0.000667215 0.0015271 0.00315216 0.00234895 0.00198319 -0.00045506 -0.000981343 0.00283527 0.00372071 0.00454232 0.00241005 0.00557918 0.00198662 0.000627818 0.00685022 -0.00200583
internal_weight=0 596310 205521 163690 129073 118086 390789 69659 387028 253472 64572 28858 193892 79006 94031 59580 77441 35714 54676 119441 76448 41636 65250 19431 31347 9194 43323 52654 9335 133556
internal_count=760000 596310 205521 163690 129073 118086 390789 69659 387028 253472 64572 28858 193892 79006 94031 59580 77441 35714 54676 119441 76448 41636 65250 19431 31347 9194 43323 52654 9335 133556
shrinkage=0.1


Tree=26
num_leaves=31
num_cat=0
split_feature=13 15 1 8 33 33 33 29 24 25 33 33 13 29 33 25 18 18 3 5 33 8 23 3 7 23 9 18 9 29
split_gain=60.6158 54.007 46.6733 27.8902 23.1243 24.545 21.5726 20.0354 19.3306 17.0107 21.5605 13.279 12.1979 11.6163 11.3705 10.6655 10.4832 10.3726 27.1257 10.3031 10.1841 9.20796 9.11676 8.9887 8.8873 8.8342 8.2201 7.97281 8.4587 7.30751
threshold=-0.31120751997981971 0.27184675165079369 1.0000000180025095e-35 1.0000000180025095e-35 1.4596581698379028 -0.23850744779158936 0.48033755967109393 -0.18207757049596582 -1.0000000180025095e-35 -0.95585226995933359 0.48033755967109393 1.4080704693023454 0.97829147197388833 -0.19807488781169538 1.869822674096022 -0.82076831732261091 0.093859199749585412 -0.21944277665010628 0.056693192452228751 -0.45922066501432407 1.8182349735604648 1.0000000180025095e-35 -0.65059328034165809 -1.0535628061081572 0.35071948667210756 0.5924560296019683 1.0000000180025095e-35 0.76088921401989684 -0.65126532026316952 -0.19807488781169538
decision_type=2 2 2 2 2 2 2 2 2 2 2 2 2 2 2 2 2 2 2 2 2 2 2 2 2 2 2 2 2 2
left_child=9 2 3 27 5 -4 19 12 11 10 -1 13 16 15 17 24 25 18 22 -5 21 -3 -11 -17 -8 -7 -12 28 -2 -20
right_child=1 20 4 6 -6 7 8 -9 -10 14 26 -13 -14 -15 -16 23 -18 -19 29 -21 -22 -23 -24 -25 -26 -27 -28 -29 -30 -31
leaf_value=-0.0007952226604263043 -0.001716844267005695 -0.0014323895403948754 0.0016413539073140641 0.0019920420176334497 -0.004147090628256616 0.0052116467782083705 0.0053769818672043173 -0.0025706487175042427 0.012764655698822666 -0.0026757349568717857 0.002718544890338652 -0.0012923137750882087 0.0087112528145452204 -0.0028447526010748417 -0.0074339977752650903 -0.00055345344241526033 0.0026447549917142221 -0.0022157512573015132 0.0019592002133196466 -9.2455468087455971e-05 -0.0065188457485732647 0.00015240038689008211 -0.00085094884037839711 0.0046098439935622288 0.015312912878997132 0.010305877985746476 0.0087061217652064388 -0.0026506141339212148 0.00045513685398116879 -0.003220176097655745
leaf_weight=29751 24945 83769 31263 43838 3811 17186 2163 3080 2204 48072 10091 5742 10725 2323 3155 4042 13277 93443 32772 51648 3112 65196 63604 20330 1542 4245 2967 14969 63764 2971
leaf_count=29751 24945 83769 31263 43838 3811 17186 2163 3080 2204 48072 10091 5742 10725 2323 3155 4042 13277 93443 32772 51648 3112 65196 63604 20330 1542 4245 2967 14969 63764 2971
internal_value=0 0.00069532 0.00143056 0.00071533 0.00346286 0.00382639 0.00166911 0.00523449 0.00367257 -0.00114706 0.000691566 0.00311812 0.00576362 0.00395117 -0.00146962 0.00451344 0.00485278 -0.0013915 -0.000869033 0.000864546 -0.00085707 -0.000738791 -0.00163645 0.00375353 0.00951226 0.0062207 0.00407902 -0.000515851 -0.000155625 0.00152868
internal_weight=0 473174 321097 237510 83587 79776 133832 48513 38346 286826 42809 36142 45433 30400 244017 28077 34708 240862 147419 95486 152077 148965 111676 24372 3705 21431 13058 103678 88709 35743
internal_count=760000 473174 321097 237510 83587 79776 133832 48513 38346 286826 42809 36142 45433 30400 244017 28077 34708 240862 147419 95486 152077 148965 111676 24372 3705 21431 13058 103678 88709 35743
shrinkage=0.1


Tree=27
num_leaves=31
num_cat=0
split_feature=5 2 5 5 23 13 3 18 13 29 28 33 24 33 33 15 33 15 29 2 15 1 33 8 33 25 33 23 1 33
split_gain=52.2913 40.8928 29.1698 34.4868 22.0892 20.4005 18.3618 18.6232 19.3149 17.1926 16.2103 15.8011 17.094 14.7337 14.2334 14.0546 13.6179 13.4298 16.2841 12.1603 11.3865 10.471 14.3051 10.4515 10.3952 9.83837 9.44151 8.744 8.74331 8.7168
threshold=-0.45922066501432407 0.23069273147229158 1.0000000180025095e-35 2.398055448282657 -0.65059328034165809 0.49160828262535705 -1.2827837320034641 0.88214523502178654 -0.49371371598551894 -0.19807488781169538 -0.1495247838773455 -0.18861114727359132 -1.0000000180025095e-35 2.0254314757114735 1.4080704693023454 -0.6626766731449486 0.48033755967109393 -1.0955809062676394 -0.11640437309454985 1.8358637786816023 1.1239122280001796 1.0000000180025095e-35 0.48033755967109393 1.0000000180025095e-35 0.79070946289321731 -0.95585226995933359 -0.75607585316472126 -0.33983095285575154 1.0000000180025095e-35 0.68668836181332316
decision_type=2 2 2 2 2 2 2 2 2 2 2 2 2 2 2 2 2 2 2 2 2 2 2 2 2 2 2 2 2 2
left_child=1 4 17 5 -1 23 -3 8 25 11 13 -6 14 19 20 -7 -14 18 -2 26 21 22 -13 -4 -24 -8 -10 -28 -25 -23
right_child=2 6 3 -5 9 15 7 -9 10 -11 -12 12 16 -15 -16 -17 -18 -19 -20 -21 -22 29 24 28 -26 -27 27 -29 -30 -31
leaf_value=-0.0016151861384022877 0.023471458189523044 -0.0040945070885797822 -0.00097029899196398911 -0.0034076149041951929 -0.00038434567341974588 0.0050476181237796231 0.0043223077916096989 -0.0018232093123662545 0.0013310435873386038 -0.0027387183753100775 -0.0018142208662340093 0.00059181677389306194 0.0029203970301961233 -0.020099461464320914 -0.0028396292920976288 0.001234099603480588 0.013401773486603957 -0.0017055299379794002 -0.00073551307719124388 0.0067251446056086229 -0.0014256062003794128 0.0070354957759789991 0.0062739873196717075 0.00021903956659322595 0.0019523889897426453 -0.00042694497014668413 0.002421084697610004 0.0050406845511846198 0.0030759554917186151 -0.00028227839475025951
leaf_weight=57604 469 4337 71189 25648 52538 13119 5457 9146 16211 13487 5270 37102 2870 255 7060 36698 2182 195011 682 13501 9363 7275 9619 58953 13210 21735 20144 34677 13091 2097
leaf_count=57604 469 4337 71189 25648 52538 13119 5457 9146 16211 13487 5270 37102 2870 255 7060 36698 2182 195011 682 13501 9363 7275 9619 58953 13210 21735 20144 34677 13091 2097
internal_value=0 0.000909413 -0.00075658 3.75675e-05 5.94517e-05 0.000495283 0.00230338 0.00252291 0.00286193 0.000674656 0.00356719 0.000995877 0.00179468 0.00390167 0.00146156 0.00223837 0.00744739 -0.00164196 0.00912814 0.00397407 0.00184758 0.00228979 0.00180371 -0.000110968 0.00377329 0.000526154 0.00345117 0.00407811 0.000738165 0.00539813
internal_weight=0 345140 414860 218698 214407 193050 130733 126396 117250 156803 90058 143316 90778 84788 85726 49817 5052 196162 1151 84533 78666 69303 59931 143233 22829 27192 71032 54821 72044 9372
internal_count=760000 345140 414860 218698 214407 193050 130733 126396 117250 156803 90058 143316 90778 84788 85726 49817 5052 196162 1151 84533 78666 69303 59931 143233 22829 27192 71032 54821 72044 9372
shrinkage=0.1


Tree=28
num_leaves=31
num_cat=0
split_feature=8 23 8 29 1 1 2 33 11 0 18 5 23 0 33 24 33 33 13 33 13 33 29 13 12 29 15 33 33 15
split_gain=48.1282 40.445 24.9678 24.5496 22.33 19.0953 19.0051 18.451 17.4357 15.0743 25.7935 12.5431 11.7959 10.9027 11.1073 12.0897 10.8144 9.62128 9.47149 9.11481 8.80976 8.78949 8.01721 7.99171 7.83069 7.91549 7.61701 7.56699 7.55133 7.46263
threshold=1.0000000180025095e-35 1.0000000180025095e-35 1.3110167883681032 -0.19807488781169538 1.0000000180025095e-35 1.0000000180025095e-35 2.1608820834725146 0.48033755967109393 0.24469342908176947 -0.85507599701176684 -0.44293861210670576 -0.45922066501432407 1.8355053395455949 -1.1360236073533245 0.4295955591443163 -1.0000000180025095e-35 -0.80597215368271924 1.9214103746315792 0.61392972573422788 1.4080704693023454 -0.49371371598551894 0.79070946289321731 -0.18544542677296152 0.28852540765823081 2.5474257642130831 -0.18712935491145935 -0.9031790250477455 1.2524616676868938 -0.75607585316472126 -2.2912211708336323
decision_type=2 2 2 2 2 2 2 2 2 2 2 2 2 2 2 2 2 2 2 2 2 2 2 2 2 2 2 2 2 2
left_child=5 6 3 4 7 13 9 29 20 -2 11 22 24 -1 -15 19 -6 18 -9 -16 -7 -18 -11 -12 25 26 -10 28 -22 -3
right_child=1 2 -4 -5 16 8 -8 17 12 10 23 -13 -14 14 15 -17 21 -19 -20 -21 27 -23 -24 -25 -26 -27 -28 -29 -30 -31
leaf_value=-0.0032322858171813223 -0.0014270876453708018 0.025944979536533359 -0.00024362621459187502 -0.0022622314833633974 0.00090650303467384996 -0.0026045729648429771 0.0046281463694199795 0.0039092823206855372 0.0059104583723525381 0.0042941352083860134 -0.0011064716325134966 0.00071882005291915886 0.0090056473377880027 -0.0015328491076087073 0.00013976826204306904 0.0052587058697003107 0.0081188946646180669 -0.01032770590465746 0.0085409083396708035 -0.0026208034563879878 -0.0019222199791783464 0.0028631149197097263 -0.0026272630552007302 0.00074907426017183771 -0.0050267086799521288 -0.0032176033704195469 0.0016649143616675093 -0.0035679151942043432 0.001160305421510602 0.0014843271924888488
leaf_weight=25259 68349 125 34397 8678 3441 17349 8521 15499 4962 22978 75794 28695 2249 160990 63670 3998 14940 405 6174 14727 10374 4043 1805 33457 1727 2825 28486 5273 33971 56839
leaf_count=25259 68349 125 34397 8678 3441 17349 8521 15499 4962 22978 75794 28695 2249 160990 63670 3998 14940 405 6174 14727 10374 4043 1805 33457 1727 2825 28486 5273 33971 56839
internal_value=0 0.000787157 0.00210825 0.00284272 0.00327933 -0.000804497 -9.81115e-06 0.00248918 0.000323763 -0.000180836 0.000342612 0.0021421 0.00196868 -0.00125479 -0.00104956 -0.000105264 0.00606454 0.00494333 0.0052287 -0.000378809 -0.000664876 0.00699952 0.00379003 -0.00053823 0.0015522 0.00186543 0.00229474 1.33421e-05 0.000439184 0.001538
internal_weight=0 384140 144541 110144 101466 375860 239599 79042 107216 231078 162729 53478 40249 268644 243385 82395 22424 22078 21673 78397 66967 18983 24783 109251 38000 36273 33448 49618 44345 56964
internal_count=760000 384140 144541 110144 101466 375860 239599 79042 107216 231078 162729 53478 40249 268644 243385 82395 22424 22078 21673 78397 66967 18983 24783 109251 38000 36273 33448 49618 44345 56964
shrinkage=0.1


Tree=29
num_leaves=31
num_cat=0
split_feature=9 29 33 15 15 1 18 1 23 23 13 18 33 3 18 23 25 23 2 18 26 3 18 16 33 33 33 5 24 8
split_gain=45.44 41.8581 43.9026 36.0267 22.6586 22.2673 19.6162 17.3723 16.9139 12.9826 12.0342 11.8248 11.4419 11.2316 10.8868 10.7777 9.1358 8.62368 8.46192 9.61466 8.42828 8.0619 10.0981 7.9336 7.46549 7.45342 7.28165 7.27734 6.92542 6.67065
threshold=-0.65126532026316952 -0.19807488781169538 -0.6529004520936067 -0.53211825250395706 -1.5697141136135075 1.0000000180025095e-35 0.41804341089830438 1.0000000180025095e-35 -0.33983095285575154 0.28169370211606165 0.71335656412415294 0.37493557670918437 1.6651632719713521 -1.113482597730135 -0.53469513320848294 -0.65059328034165809 -0.95585226995933359 1.2139806845737817 1.7781992407348275 0.40339339629727183 0.35377103708717433 0.16827325113310374 -0.43970275411616006 4.4131710130322572 1.869822674096022 1.71505957248935 -0.087127146220036075 -0.45922066501432407 -1.0000000180025095e-35 1.0000000180025095e-35
decision_type=2 2 2 2 2 2 2 2 2 2 2 2 2 2 2 2 2 2 2 2 2 2 2 2 2 2 2 2 2 2
left_child=8 2 18 4 -4 9 7 13 -1 21 16 -11 17 -5 -15 -16 -9 20 19 -2 -7 -6 26 28 -18 27 -23 29 -17 -10
right_child=1 -3 3 6 5 12 -8 10 25 11 -12 -13 -14 14 15 23 24 -19 -20 -21 -22 22 -24 -25 -26 -27 -28 -29 -30 -31
leaf_value=-0.0021824254579992709 -0.00074635987275313098 -0.002417063810219308 0.017415805794261875 -0.0022188024308819037 0.00030429663776104337 0.0051221875369040102 -0.001294580098014884 0.0076034455564946493 -0.00054715510263515755 0.0041746163880241752 0.0056904173395316213 3.3589027258542252e-05 -0.0063455172532541869 0.0026816772535575729 -0.0014446296778928133 0.0006879134480533111 0.0015722501973826333 0.0083299177746178222 0.0022191525373606419 -0.0032035593837695998 0.0011570361412287901 -0.00064368966507585086 0.001449058652354942 0.027626183011510354 -0.0093147246061165666 -0.0052552729508972794 0.0093213251346730332 -0.00099625254442426564 0.0063033394074879824 0.0016088316708616993
leaf_weight=96692 82567 44793 1013 14547 54082 21911 47839 2523 29170 29164 10153 9031 935 22956 26828 67596 33308 5955 7691 19729 7097 949 13922 111 642 3142 3226 71910 2270 28248
leaf_count=96692 82567 44793 1013 14547 54082 21911 47839 2523 29170 29164 10153 9031 935 22956 26828 67596 33308 5955 7691 19729 7097 949 13922 111 642 3142 3226 71910 2270 28248
internal_value=0 0.000508046 0.000777618 0.0012916 0.00251146 0.00240824 0.000506256 0.000982398 -0.00117685 0.00170459 0.00264545 0.00319549 0.00457171 0.000405057 0.000723769 0.000259478 0.00179782 0.00486367 -0.000979754 -0.00122026 0.00415209 0.000915647 0.00274264 0.000912804 0.00136638 -0.000442869 0.00705622 -0.000325952 0.000870363 0.000513528
internal_weight=0 530838 486045 376058 147285 146272 228773 180934 229162 110374 46626 38195 35898 134308 119761 96805 36473 34963 109987 102296 29008 72179 18097 69977 33950 132470 4175 129328 69866 57418
internal_count=760000 530838 486045 376058 147285 146272 228773 180934 229162 110374 46626 38195 35898 134308 119761 96805 36473 34963 109987 102296 29008 72179 18097 69977 33950 132470 4175 129328 69866 57418
shrinkage=0.1


Tree=30
num_leaves=31
num_cat=0
split_feature=13 5 5 5 25 25 33 15 33 33 2 18 3 29 28 23 18 33 1 33 23 1 25 18 3 33 15 16 29 13
split_gain=40.1772 28.4915 19.1022 22.3554 18.1708 15.8552 17.3361 13.4634 13.4026 12.7596 12.1405 11.4417 28.7398 10.5989 10.3377 9.91858 9.79347 9.50426 9.29495 12.5067 9.13814 9.10679 8.7098 7.91673 7.76774 7.3884 7.18432 6.75008 9.3548 6.42769
threshold=1.0000000180025095e-35 -0.45922066501432407 1.0000000180025095e-35 1.6837364199584115 -0.28043250677572029 -0.95585226995933359 0.48033755967109393 0.1962602981524362 1.9214103746315792 1.5112458703734599 0.68487960126397873 -0.20202233568730507 0.072313635896758419 -0.18712935491145935 -0.1495247838773455 -0.65059328034165809 0.26385256130770901 1.4080704693023454 1.0000000180025095e-35 0.48033755967109393 0.28169370211606165 1.0000000180025095e-35 -0.68568436468588823 0.44971492506604344 1.4279272240821739 0.22324475700208721 1.281956631456622 3.9884316892262044 -0.096197235432575703 -1.0921860167866229
decision_type=2 2 2 2 2 2 2 2 2 2 2 2 2 2 2 2 2 2 2 2 2 2 2 2 2 2 2 2 2 2
left_child=5 4 27 7 14 6 29 13 11 10 26 12 15 16 18 -7 21 -17 19 -2 25 -4 -21 -12 -8 -14 -6 -3 -29 -1
right_child=1 2 3 -5 9 8 24 -9 -10 -11 23 -13 20 -15 -16 17 -18 -19 -20 22 -22 -23 -24 -25 -26 -27 -28 28 -30 -31
leaf_value=-0.002470685530182491 0.0015585911729336553 -0.0011770127569671002 0.0031326865374172795 -0.0013823108362542632 0.00078954503431086275 -0.0020024209322837125 0.003141755636669834 -0.00016150440027295368 -0.0074537291749031849 -0.0041930663709541273 0.0037086093405495077 -0.0015536371346702453 -2.6076053113508866e-07 -0.0022852000254217678 -0.0016455123497754152 -0.00015468873216922851 0.00064380387694270853 -0.0048371400175541597 0.0056378650483575035 0.0081772023869654906 0.0055063650965612061 0.0069696013472918599 0.0031052883807636956 -0.0004998760447955528 0.011353303121576095 0.0026075350002401809 -0.002542158400217162 0.034039937656086226 -0.0016872706529933827 0.00058427976721887041
leaf_weight=9410 30274 89265 25579 30735 63020 64446 13669 22829 3115 4673 23036 142613 23047 3806 4332 87786 11165 4560 14257 5712 5641 8159 8314 5546 1258 20553 7213 130 168 25689
leaf_count=9410 30274 89265 25579 30735 63020 64446 13669 22829 3115 4673 23036 142613 23047 3806 4332 87786 11165 4560 14257 5712 5641 8159 8314 5546 1258 20553 7213 130 168 25689
internal_value=0 0.000770035 -6.05207e-05 0.000873293 0.00172768 -0.000686524 0.000979241 0.00184237 -0.000923423 0.00091301 0.00115448 -0.000865077 -0.000388466 0.00278155 0.00306828 -0.00105034 0.00321101 -0.000385906 0.003417 0.00270226 0.00171906 0.00406058 0.00517079 0.002892 0.0038338 0.00122905 0.000447376 -0.00112685 0.0138984 -0.000234753
internal_weight=0 358213 191836 102273 166377 401787 50026 71538 351761 103488 98815 348646 206033 48709 62889 156792 44903 92346 58557 44300 49241 33738 14026 28582 14927 43600 70233 89563 298 35099
internal_count=760000 358213 191836 102273 166377 401787 50026 71538 351761 103488 98815 348646 206033 48709 62889 156792 44903 92346 58557 44300 49241 33738 14026 28582 14927 43600 70233 89563 298 35099
shrinkage=0.1


Tree=31
num_leaves=31
